svm_type c_svc
kernel_type rbf
gamma 0.5
nr_class 14
total_sv 551
rho 0.333527 0.0764402 -0.0691507 0.149111 0.140654 0.0190019 0.0906297 -0.0472859 0.0685794 -0.0739778 -0.0626484 -0.150077 -0.152454 -0.319736 -0.475931 -0.251997 -0.242859 -0.264837 -0.312685 -0.369638 -0.304888 -0.40763 -0.61184 -0.475411 -0.560607 -0.0436658 0.0712327 0.10078 0.0203499 0.0552949 -0.084503 0.0906967 -0.137038 -0.109925 -0.208572 -0.190145 0.16208 0.247944 0.113686 0.134067 0.0993802 0.153768 -0.0637305 0.0349806 -0.139889 -0.186914 0.0175115 -0.0913335 -0.0350367 -0.173025 -0.0856804 -0.195302 -0.194397 -0.283568 -0.273301 -0.0156737 -0.0717731 -0.16173 -0.134608 -0.228852 -0.228464 -0.308694 -0.3048 -0.00013205 -0.0854703 0.0110218 -0.172982 -0.149854 -0.252621 -0.233971 -0.0956392 -0.0680503 -0.163678 -0.163264 -0.238129 -0.264331 0.154126 -0.0831997 -0.0641063 -0.156973 -0.154128 -0.129436 -0.121726 -0.203974 -0.227315 0.0119589 -0.112947 -0.0718411 -0.0869155 -0.211555 0.00182036
label 0 1 2 3 4 5 6 7 8 9 10 11 12 13
nr_sv 30 70 38 50 33 51 50 38 45 41 27 40 16 22
SV
0.1948354353779717 0.2251350300880342 0.3950864118791297 0.1108478461475599 0.3742770396155681 0.3676634041927685 0.1825769523836123 0.976182619188203 0.1937644017572209 0.1721754730891905 0.1200290942437629 0.1211721000939306 0.06852514718750717 1:0 2:0 3:0 4:0 5:0 6:0.34375 7:0.0625 8:0.09375 9:0.34375 10:0.25 11:0.1875 12:0.3125 13:0.375 14:0.53125 15:0.5625 16:0.375 17:0.59375 18:0.28125 19:0.375 20:0.625 21:0.25 22:0.0625 23:0.0625 24:0.25 25:0.09375 26:0.59375 27:0.28125 28:0 29:0.59375 30:0.8125 31:0.25 32:0.03125 33:0.09375 34:0.25 35:0.0625 36:0.65625 37:0.53125 38:0.03125 39:0.65625 40:0.8125 41:0.53125 42:0.375 43:0 44:0.53125 45:0.59375 46:0.46875 47:0.25 48:0.0625 49:0.46875 50:0.25 51:0.5 52:0.375 53:0 54:0.5 55:0.34375 56:0.5 57:0.25 58:0.0625 59:0.5 60:0.5 61:0.6875 62:0.6875 63:0 64:0.59375 65:0.75 66:0.40625 67:0.34375 68:0.21875 69:0.46875 70:0.34375 71:0.4375 72:0.0625 73:0.1875 74:0.4375 75:0.6875 76:0.21875 77:0.125 78:0.03125 79:0.21875 80:0.09375 
0.2081107112162265 0.006566190270571116 0.2748493785619328 0.1653120418610857 0.08815057147598032 0.03604343966133636 0.1581372166902248 0.1171966459349136 0 0.06341732651723953 0.1508596560356111 0.07491829424666151 0.1508717566694874 1:0 2:0 3:0 4:0 5:0 6:0.21875 7:0 8:0.15625 9:0.28125 10:0.28125 11:0.0625 12:0.25 13:0.46875 14:0.40625 15:0.5 16:0.28125 17:0.34375 18:0.15625 19:0 20:0.40625 21:0.46875 22:0.125 23:0.03125 24:0.46875 25:0.40625 26:0.46875 27:0.125 28:0.09375 29:0.46875 30:0.5625 31:0.1875 32:0.09375 33:0 34:0.15625 35:0 36:0.65625 37:0.46875 38:0 39:0.5625 40:0.84375 41:0.65625 42:0.4375 43:0 44:0.65625 45:0.8125 46:0.21875 47:0.09375 48:0 49:0.21875 50:0.03125 51:0.375 52:0.21875 53:0 54:0.375 55:0.125 56:0.625 57:0.46875 58:0 59:0.625 60:0.6875 61:0.59375 62:0.59375 63:0.0625 64:0.25 65:0.78125 66:0.1875 67:0.15625 68:0.1875 69:0.15625 70:0.3125 71:0.5 72:0 73:0.125 74:0.5 75:0.75 76:0.25 77:0.0625 78:0.0625 79:0.25 80:0.15625 
0.08810628254382687 0.07723464910436861 0.1234181036566014 0.02796777723307904 0.1118977523094995 0.09376317288877682 0.07040651021122547 0.2721769854174483 0.1451429219501514 0.04377967128717944 0.06357503949205784 0.03794959884923647 0.04424629380862462 1:0.28125 2:0.125 3:0.03125 4:0.28125 5:0.125 6:0.21875 7:0.1875 8:0.34375 9:0.46875 10:0.5625 11:0.1875 12:0.53125 13:0.375 14:0.3125 15:0.5625 16:0.34375 17:0.34375 18:0.09375 19:0.0625 20:0.25 21:0.65625 22:0.5 23:0.0625 24:0.65625 25:0.71875 26:0.34375 27:0.1875 28:0.0625 29:0.34375 30:0.15625 31:0.28125 32:0.28125 33:0.0625 34:0.1875 35:0.03125 36:0.71875 37:0.71875 38:0 39:0.625 40:0.75 41:0.75 42:0.75 43:0 44:0.75 45:0.75 46:0.25 47:0.25 48:0 49:0.25 50:0 51:0.25 52:0.1875 53:0 54:0.1875 55:0 56:0.59375 57:0.46875 58:0 59:0.53125 60:0.875 61:0.5 62:0.5 63:0.09375 64:0.1875 65:0.4375 66:0.34375 67:0.40625 68:0.1875 69:0.0625 70:0.5625 71:0.28125 72:0.125 73:0.1875 74:0.375 75:0.40625 76:0.59375 77:0.3125 78:0.0625 79:0.59375 80:0.59375 
0.7222762171869332 0.7646495073107056 1 0.7955361927910708 0.8788264359121191 1 0.6787611222860301 1 1 0.4758705549351745 0.5131338774542393 0.4192508513301632 0.4432192520580381 1:0.15625 2:0.0625 3:0.03125 4:0.15625 5:0.0625 6:0.09375 7:0.125 8:0.34375 9:0.34375 10:0.4375 11:0.09375 12:0.34375 13:0.34375 14:0.125 15:0.4375 16:0.15625 17:0.15625 18:0.09375 19:0 20:0.09375 21:0.5 22:0.375 23:0 24:0.5 25:0.40625 26:0.5 27:0.3125 28:0 29:0.5 30:0.40625 31:0.5 32:0.5 33:0.0625 34:0.375 35:0.28125 36:0.5 37:0.5 38:0 39:0.5 40:0.5 41:0.5 42:0.5 43:0 44:0.375 45:0.46875 46:0.5 47:0.5 48:0 49:0.375 50:0.34375 51:0.5 52:0.5 53:0 54:0.5 55:0.25 56:0.5 57:0.5 58:0 59:0.5 60:0.5 61:0.3125 62:0.3125 63:0 64:0.1875 65:0.125 66:0.34375 67:0.5625 68:0.28125 69:0.1875 70:0.65625 71:0.28125 72:0.1875 73:0.40625 74:0.53125 75:0.5625 76:0.34375 77:0.1875 78:0.09375 79:0.34375 80:0.28125 
0 0 0 0 0 0 0 0 0.2356281345974555 0 0 0 0 1:0 2:0 3:0 4:0 5:0 6:0.28125 7:0 8:0.15625 9:0.28125 10:0.28125 11:0.21875 12:0.21875 13:0.46875 14:0.4375 15:0.5625 16:0.40625 17:0.46875 18:0.15625 19:0.15625 20:0.46875 21:0.375 22:0.25 23:0 24:0.375 25:0.125 26:0.5625 27:0.25 28:0 29:0.5625 30:0.75 31:0.3125 32:0.25 33:0 34:0.3125 35:0 36:0.625 37:0.53125 38:0 39:0.59375 40:0.875 41:0.5 42:0.375 43:0 44:0.5 45:0.46875 46:0.5 47:0.375 48:0 49:0.5 50:0.34375 51:0.46875 52:0.125 53:0 54:0.46875 55:0.34375 56:0.53125 57:0.25 58:0 59:0.53125 60:0.5625 61:0.5 62:0.5 63:0.0625 64:0.375 65:0.46875 66:0.375 67:0.34375 68:0.1875 69:0.375 70:0.5625 71:0.53125 72:0.1875 73:0.21875 74:0.53125 75:0.71875 76:0.1875 77:0.0625 78:0 79:0.1875 80:0.03125 
0.1925097060720082 0.2490862704177565 0.3137922305590106 0.1055855263150648 0.1264235119436671 0 0.1689412303955994 0.5309075521879982 0.4600788565657064 0.193436047240742 0.1950141349213141 0.09131834682581824 0.1234561274106356 1:0.25 2:0.0625 3:0.0625 4:0.25 5:0.15625 6:0.28125 7:0.125 8:0.34375 9:0.5 10:0.59375 11:0.0625 12:0.5 13:0.5 14:0.375 15:0.40625 16:0.34375 17:0.40625 18:0.25 19:0.0625 20:0.53125 21:0.5 22:0.5 23:0 24:0.5 25:0.5 26:0.5 27:0.4375 28:0 29:0.5 30:0.25 31:0 32:0 33:0 34:0 35:0 36:0.75 37:0.75 38:0 39:0.75 40:0.75 41:0.5 42:0.5 43:0 44:0.5 45:0.5 46:0.5 47:0.5 48:0 49:0.5 50:0.25 51:0 52:0 53:0 54:0 55:0 56:0.75 57:0.75 58:0 59:0.75 60:0.75 61:0.40625 62:0.40625 63:0.0625 64:0.21875 65:0.28125 66:0.46875 67:0.5 68:0.125 69:0.15625 70:0.65625 71:0.125 72:0.0625 73:0.25 74:0.25 75:0.34375 76:0.5625 77:0.25 78:0.21875 79:0.5625 80:0.71875 
0 0 0.0003122896761627669 0 0 0 0 0 0 0 0 0 0 1:0.1875 2:0.0625 3:0 4:0.1875 5:0.0625 6:0.3125 7:0.0625 8:0.25 9:0.4375 10:0.59375 11:0.15625 12:0.5 13:0.4375 14:0.375 15:0.4375 16:0.375 17:0.4375 18:0.09375 19:0.125 20:0.4375 21:0.5 22:0.375 23:0 24:0.5 25:0.40625 26:0.5 27:0.3125 28:0 29:0.5 30:0.40625 31:0.25 32:0.25 33:0 34:0.25 35:0 36:0.75 37:0.75 38:0 39:0.75 40:0.75 41:0.5 42:0.5 43:0 44:0.5 45:0.5 46:0.5 47:0.5 48:0 49:0.4375 50:0.25 51:0.25 52:0.25 53:0 54:0.25 55:0 56:0.75 57:0.75 58:0 59:0.75 60:0.75 61:0.40625 62:0.40625 63:0.03125 64:0.1875 65:0.25 66:0.28125 67:0.5 68:0.28125 69:0.125 70:0.6875 71:0.3125 72:0.15625 73:0.15625 74:0.28125 75:0.40625 76:0.59375 77:0.3125 78:0.0625 79:0.59375 80:0.625 
0.1578771654323395 0.1181147856146243 0.05070584653619126 0.07863788453275736 0.08461946512121178 0 0.1271795873139492 0 0.03976992363613044 0.03752074077092702 0.1060952111212874 0.0882955098218115 0.09990559449334745 1:0.21875 2:0.03125 3:0.0625 4:0.21875 5:0.09375 6:0.3125 7:0.21875 8:0.28125 9:0.53125 10:0.625 11:0.15625 12:0.5625 13:0.46875 14:0.375 15:0.4375 16:0.3125 17:0.375 18:0.1875 19:0.03125 20:0.5 21:0.5 22:0.5 23:0 24:0.5 25:0.5 26:0.5 27:0.375 28:0.0625 29:0.5 30:0.28125 31:0 32:0 33:0 34:0 35:0 36:0.75 37:0.75 38:0 39:0.6875 40:0.75 41:0.5 42:0.5 43:0 44:0.5 45:0.5 46:0.5 47:0.5 48:0 49:0.5 50:0.25 51:0 52:0 53:0 54:0 55:0 56:0.75 57:0.75 58:0 59:0.75 60:0.75 61:0.34375 62:0.34375 63:0.0625 64:0.15625 65:0.21875 66:0.5 67:0.5 68:0.15625 69:0.09375 70:0.71875 71:0.125 72:0.0625 73:0.25 74:0.1875 75:0.34375 76:0.5625 77:0.25 78:0.21875 79:0.5625 80:0.71875 
0.9407999882978326 0.937392432357544 1 1 0.775711779470487 1 0.7697308683643697 1 0.9780207720522222 0.6072853625372081 0.7239439205147861 0.6069702906956662 0.6632544346519883 1:0 2:0 3:0 4:0 5:0 6:0.15625 7:0 8:0.03125 9:0.15625 10:0.0625 11:0.28125 12:0 13:0.34375 14:0.34375 15:0.53125 16:0.28125 17:0.5 18:0.25 19:0.28125 20:0.65625 21:0.09375 22:0.03125 23:0 24:0.09375 25:0 26:0.53125 27:0.09375 28:0 29:0.53125 30:0.71875 31:0.46875 32:0.09375 33:0 34:0.46875 35:0.21875 36:0.6875 37:0.46875 38:0 39:0.6875 40:0.8125 41:0.5 42:0.3125 43:0 44:0.5 45:0.375 46:0.5 47:0.25 48:0 49:0.5 50:0.5 51:0.5 52:0.25 53:0 54:0.5 55:0.375 56:0.5 57:0.25 58:0 59:0.5 60:0.5 61:0.5625 62:0.40625 63:0.0625 64:0.40625 65:0.6875 66:0.5 67:0.28125 68:0.15625 69:0.46875 70:0.4375 71:0.5 72:0.09375 73:0.09375 74:0.5 75:0.75 76:0.15625 77:0.0625 78:0.03125 79:0.15625 80:0.0625 
0 0 0.03504740320676393 0 0 0 0 0 0 0 0 0 0 1:0 2:0 3:0 4:0 5:0 6:0.15625 7:0 8:0.21875 9:0.21875 10:0.1875 11:0 12:0.125 13:0.375 14:0.375 15:0.4375 16:0.1875 17:0.40625 18:0.28125 19:0.1875 20:0.4375 21:0.4375 22:0.1875 23:0 24:0.4375 25:0.25 26:0.46875 27:0.125 28:0.03125 29:0.46875 30:0.6875 31:0.0625 32:0 33:0.125 34:0.125 35:0.03125 36:0.75 37:0.75 38:0 39:0.75 40:0.75 41:0.53125 42:0.375 43:0 44:0.53125 45:0.59375 46:0.46875 47:0.3125 48:0 49:0.46875 50:0.21875 51:0.15625 52:0.03125 53:0 54:0.15625 55:0.03125 56:0.65625 57:0.4375 58:0 59:0.65625 60:0.8125 61:0.5625 62:0.5625 63:0 64:0.21875 65:0.5625 66:0.3125 67:0.3125 68:0.125 69:0.09375 70:0.46875 71:0.25 72:0.125 73:0.3125 74:0.5 75:0.59375 76:0.40625 77:0.125 78:0.09375 79:0.40625 80:0.375 
0 0 0 0 0 0 0 0.07740381420057764 0 0 0 0 0 1:0.09375 2:0.0625 3:0 4:0.09375 5:0 6:0.25 7:0.0625 8:0.28125 9:0.40625 10:0.46875 11:0.0625 12:0.25 13:0.5 14:0.5 15:0.46875 16:0.28125 17:0.5 18:0.28125 19:0.125 20:0.59375 21:0.46875 22:0.1875 23:0.0625 24:0.46875 25:0.4375 26:0.53125 27:0.3125 28:0.0625 29:0.53125 30:0.46875 31:0 32:0 33:0 34:0 35:0 36:0.5 37:0.5 38:0 39:0.5 40:0.5 41:0.71875 42:0.6875 43:0 44:0.71875 45:0.75 46:0.28125 47:0.1875 48:0 49:0.28125 50:0.03125 51:0.03125 52:0 53:0.03125 54:0.03125 55:0 56:0.625 57:0.375 58:0.03125 59:0.625 60:0.75 61:0.5625 62:0.5625 63:0.15625 64:0.3125 65:0.5625 66:0.28125 67:0.34375 68:0.25 69:0.0625 70:0.4375 71:0.375 72:0.0625 73:0.125 74:0.4375 75:0.5625 76:0.4375 77:0.0625 78:0.09375 79:0.4375 80:0.46875 
0.05472563500364604 0 0 0.01966446035360704 0.139234919247265 0.04349712246148408 0.03455411606772708 0 0 0 0.03354112741074362 0 0.0663873863483716 1:0.09375 2:0.03125 3:0 4:0.09375 5:0 6:0.1875 7:0.15625 8:0.28125 9:0.40625 10:0.4375 11:0.03125 12:0.40625 13:0.40625 14:0.25 15:0.4375 16:0.21875 17:0.21875 18:0.09375 19:0 20:0.15625 21:0.625 22:0.40625 23:0.125 24:0.625 25:0.65625 26:0.375 27:0.15625 28:0.125 29:0.375 30:0.28125 31:0.25 32:0.25 33:0 34:0.0625 35:0.0625 36:0.625 37:0.625 38:0 39:0.34375 40:0.8125 41:0.75 42:0.75 43:0 44:0.75 45:0.75 46:0.25 47:0.25 48:0 49:0.25 50:0 51:0 52:0 53:0 54:0 55:0 56:0.75 57:0.6875 58:0 59:0.75 60:0.75 61:0.46875 62:0.46875 63:0.15625 64:0.21875 65:0.46875 66:0.375 67:0.375 68:0.3125 69:0.03125 70:0.53125 71:0.28125 72:0.09375 73:0.1875 74:0.3125 75:0.40625 76:0.53125 77:0.125 78:0.0625 79:0.53125 80:0.65625 
0.1655594765893165 0.1774876544353934 0.146576880612852 0.1676663873737189 0.1204730296029579 0.3548025346334435 0.1256405292296139 0.2811363989424168 0.1238047014020498 0.179997111891049 0.1052392030646915 0.1599764215975129 0.09165868156526358 1:0.125 2:0 3:0.0625 4:0.125 5:0.03125 6:0.15625 7:0.125 8:0.28125 9:0.375 10:0.4375 11:0.0625 12:0.46875 13:0.4375 14:0.375 15:0.40625 16:0.21875 17:0.28125 18:0.15625 19:0 20:0.25 21:0.625 22:0.40625 23:0 24:0.625 25:0.6875 26:0.375 27:0.09375 28:0.0625 29:0.375 30:0.21875 31:0.09375 32:0.09375 33:0.03125 34:0 35:0.03125 36:0.53125 37:0.53125 38:0.03125 39:0.25 40:0.75 41:0.75 42:0.75 43:0 44:0.75 45:0.75 46:0.25 47:0.25 48:0 49:0.25 50:0 51:0 52:0 53:0 54:0 55:0 56:0.5 57:0.375 58:0 59:0.5 60:0.53125 61:0.5 62:0.5 63:0.125 64:0.21875 65:0.46875 66:0.375 67:0.40625 68:0.1875 69:0.03125 70:0.53125 71:0.0625 72:0.0625 73:0.25 74:0.25 75:0.34375 76:0.46875 77:0.28125 78:0.25 79:0.625 80:0.75 
0.4349756634916039 0.4397901366357122 0.4673919282934418 0.7365649744566798 0.1807189923719164 0.6239824368026 0.273407783323143 0.412208961855278 0.6110764344351906 0.2244813399805957 0.2970442818552084 0.256244934360574 0.2911342966592847 1:0.03125 2:0 3:0 4:0.03125 5:0 6:0.1875 7:0 8:0.21875 9:0.25 10:0.3125 11:0.0625 12:0.3125 13:0.34375 14:0.25 15:0.46875 16:0.21875 17:0.21875 18:0.15625 19:0 20:0.1875 21:0.4375 22:0.34375 23:0 24:0.4375 25:0.1875 26:0.53125 27:0.28125 28:0.03125 29:0.53125 30:0.65625 31:0.3125 32:0.28125 33:0.125 34:0.21875 35:0.03125 36:0.71875 37:0.71875 38:0 39:0.6875 40:0.75 41:0.5 42:0.5 43:0 44:0.4375 45:0.25 46:0.5 47:0.5 48:0 49:0.375 50:0.5625 51:0.25 52:0.25 53:0 54:0.25 55:0 56:0.75 57:0.75 58:0 59:0.75 60:0.75 61:0.125 62:0.125 63:0 64:0.0625 65:0 66:0.46875 67:0.59375 68:0.15625 69:0.1875 70:0.6875 71:0.21875 72:0.3125 73:0.46875 74:0.46875 75:0.46875 76:0.46875 77:0.21875 78:0.15625 79:0.46875 80:0.46875 
0 0 0 0 0 0.03371086527841518 0 0 0 0 0 0 0 1:0.15625 2:0 3:0.03125 4:0.15625 5:0.0625 6:0.21875 7:0.0625 8:0.34375 9:0.34375 10:0.5 11:0.15625 12:0.375 13:0.34375 14:0.15625 15:0.5 16:0.21875 17:0.21875 18:0.03125 19:0.0625 20:0.09375 21:0.5 22:0.4375 23:0 24:0.5 25:0.5 26:0.5 27:0.3125 28:0 29:0.5 30:0.3125 31:0.4375 32:0.4375 33:0 34:0.21875 35:0.25 36:0.5625 37:0.5625 38:0 39:0.34375 40:0.625 41:0.5 42:0.5 43:0 44:0.5 45:0.5 46:0.5 47:0.5 48:0 49:0.4375 50:0.25 51:0.34375 52:0.25 53:0 54:0.34375 55:0.09375 56:0.65625 57:0.5 58:0 59:0.65625 60:0.71875 61:0.34375 62:0.34375 63:0.03125 64:0.125 65:0.21875 66:0.28125 67:0.53125 68:0.34375 69:0.1875 70:0.625 71:0.25 72:0.3125 73:0.375 74:0.59375 75:0.59375 76:0.40625 77:0.1875 78:0.03125 79:0.40625 80:0.28125 
0 0 0.0891772515468397 0 0 0.02963741263747847 0 0.1452468734481139 0 0 0 0 0 1:0.0625 2:0 3:0 4:0.0625 5:0 6:0.09375 7:0 8:0.25 9:0.3125 10:0.375 11:0.03125 12:0.34375 13:0.4375 14:0.34375 15:0.4375 16:0.21875 17:0.28125 18:0.15625 19:0.0625 20:0.28125 21:0.5 22:0.375 23:0.0625 24:0.5 25:0.46875 26:0.5 27:0.25 28:0.09375 29:0.5 30:0.40625 31:0.09375 32:0.09375 33:0.03125 34:0.0625 35:0 36:0.6875 37:0.6875 38:0 39:0.46875 40:0.8125 41:0.5 42:0.5 43:0 44:0.5 45:0.5 46:0.5 47:0.5 48:0 49:0.4375 50:0.25 51:0.0625 52:0.03125 53:0 54:0.0625 55:0 56:0.6875 57:0.5625 58:0 59:0.6875 60:0.8125 61:0.3125 62:0.3125 63:0 64:0.0625 65:0.1875 66:0.34375 67:0.5625 68:0.28125 69:0.125 70:0.65625 71:0.125 72:0.4375 73:0.46875 74:0.5625 75:0.40625 76:0.5 77:0.25 78:0.15625 79:0.5625 80:0.5625 
0 0.03695265091053136 0.2583729177875613 0.02015920724758315 0.4094591931455582 0.8672980563363185 0 0.2978763340189278 0.1039908737785231 0.09362943840991807 0 0.07032204287831963 0.001612874385250294 1:0.0625 2:0.03125 3:0 4:0.0625 5:0 6:0.3125 7:0.03125 8:0.25 9:0.3125 10:0.4375 11:0.1875 12:0.28125 13:0.5 14:0.40625 15:0.5 16:0.3125 17:0.375 18:0.25 19:0 20:0.53125 21:0.46875 22:0.25 23:0 24:0.46875 25:0.375 26:0.53125 27:0.1875 28:0 29:0.53125 30:0.5 31:0 32:0 33:0 34:0 35:0 36:0.5 37:0.375 38:0 39:0.375 40:0.5625 41:0.5 42:0.5 43:0 44:0.5 45:0.5 46:0.5 47:0.5 48:0 49:0.5 50:0.25 51:0 52:0 53:0 54:0 55:0 56:0.71875 57:0.625 58:0 59:0.71875 60:0.75 61:0.5 62:0.5 63:0.0625 64:0.375 65:0.46875 66:0.34375 67:0.46875 68:0.15625 69:0.3125 70:0.46875 71:0.3125 72:0.1875 73:0.1875 74:0.4375 75:0.4375 76:0.46875 77:0.15625 78:0.15625 79:0.46875 80:0.625 
0.4490064046668755 0.4563047861583587 0.4256945591096528 0.3989756230906378 0.7180078464774777 0.7855278863969014 0.3981444899789806 0.6604272470426472 0.3561395783480442 0.5403885155679229 0.3523923070728969 0.2517602912686744 0.2829281007738969 1:0.28125 2:0.0625 3:0.09375 4:0.28125 5:0.15625 6:0.21875 7:0.1875 8:0.34375 9:0.46875 10:0.5625 11:0.09375 12:0.5625 13:0.5 14:0.46875 15:0.375 16:0.34375 17:0.46875 18:0.1875 19:0.15625 20:0.59375 21:0.6875 22:0.59375 23:0 24:0.6875 25:0.75 26:0.3125 27:0.15625 28:0.0625 29:0.3125 30:0.09375 31:0 32:0 33:0 34:0 35:0 36:0.5 37:0.5 38:0.0625 39:0.375 40:0.53125 41:0.75 42:0.75 43:0 44:0.71875 45:0.75 46:0.25 47:0.25 48:0 49:0.21875 50:0 51:0 52:0 53:0 54:0 55:0 56:0.5 57:0.5 58:0 59:0.5 60:0.5 61:0.40625 62:0.40625 63:0.09375 64:0.125 65:0.34375 66:0.4375 67:0.4375 68:0.25 69:0.0625 70:0.65625 71:0.125 72:0.15625 73:0.21875 74:0.25 75:0.28125 76:0.5 77:0.09375 78:0.15625 79:0.5 80:0.75 
0 0 0 0 0 0 0 0 0.02494336192854878 0 0 0 0 1:0.21875 2:0.03125 3:0.0625 4:0.21875 5:0.09375 6:0.3125 7:0.21875 8:0.28125 9:0.53125 10:0.625 11:0.15625 12:0.53125 13:0.40625 14:0.25 15:0.5 16:0.3125 17:0.3125 18:0.15625 19:0 20:0.375 21:0.5 22:0.5 23:0 24:0.5 25:0.5 26:0.5 27:0.375 28:0.0625 29:0.5 30:0.28125 31:0.03125 32:0.03125 33:0.03125 34:0 35:0 36:0.71875 37:0.71875 38:0.03125 39:0.625 40:0.78125 41:0.5 42:0.5 43:0 44:0.5 45:0.5 46:0.5 47:0.5 48:0 49:0.5 50:0.25 51:0 52:0 53:0 54:0 55:0 56:0.75 57:0.75 58:0 59:0.75 60:0.75 61:0.375 62:0.375 63:0 64:0.125 65:0.25 66:0.40625 67:0.5 68:0.15625 69:0 70:0.6875 71:0.15625 72:0.125 73:0.21875 74:0.1875 75:0.34375 76:0.5625 77:0.25 78:0.09375 79:0.5625 80:0.75 
0.3713615404264321 0.2317116927285159 0.1176409160320305 0.3643416536574194 0.4933157365654149 0.7044545165070019 0.2976795944688101 0.03255484640250974 0.1069660673721337 0.3340282224676096 0.2463704257966213 0.3225589669901878 0.1949230162987197 1:0 2:0 3:0 4:0 5:0 6:0.25 7:0.125 8:0.15625 9:0.375 10:0.34375 11:0.15625 12:0.125 13:0.5 14:0.5 15:0.5 16:0.1875 17:0.53125 18:0.375 19:0.375 20:0.5625 21:0.40625 22:0.125 23:0.03125 24:0.40625 25:0.25 26:0.5 27:0.1875 28:0.09375 29:0.5 30:0.6875 31:0.09375 32:0.0625 33:0 34:0.09375 35:0 36:0.5625 37:0.40625 38:0 39:0.5625 40:0.625 41:0.6875 42:0.59375 43:0 44:0.6875 45:0.75 46:0.3125 47:0.15625 48:0 49:0.3125 50:0.0625 51:0.3125 52:0.0625 53:0 54:0.3125 55:0.1875 56:0.5625 57:0.15625 58:0 59:0.5625 60:0.75 61:0.65625 62:0.65625 63:0.0625 64:0.5 65:0.71875 66:0.1875 67:0.3125 68:0.21875 69:0.25 70:0.28125 71:0.5 72:0.15625 73:0.09375 74:0.5 75:0.75 76:0.34375 77:0.15625 78:0 79:0.34375 80:0.125 
0 0 0.06729111281228078 0 0 0.406394665938438 0 0.6023221476329421 0 0 0 0 0 1:0 2:0 3:0 4:0 5:0 6:0.15625 7:0 8:0.15625 9:0.15625 10:0.09375 11:0.15625 12:0.0625 13:0.34375 14:0.34375 15:0.5 16:0.25 17:0.40625 18:0.28125 19:0.125 20:0.5 21:0.3125 22:0.125 23:0 24:0.3125 25:0.09375 26:0.53125 27:0.1875 28:0.09375 29:0.53125 30:0.78125 31:0.25 32:0.03125 33:0.15625 34:0.25 35:0.09375 36:0.6875 37:0.46875 38:0 39:0.6875 40:0.8125 41:0.5625 42:0.34375 43:0 44:0.5625 45:0.625 46:0.4375 47:0.21875 48:0 49:0.4375 50:0.25 51:0.5 52:0.25 53:0 54:0.5 55:0.375 56:0.5 57:0.25 58:0 59:0.5 60:0.5 61:0.625 62:0.6875 63:0.09375 64:0.53125 65:0.71875 66:0.3125 67:0.28125 68:0.34375 69:0.46875 70:0.46875 71:0.4375 72:0 73:0.25 74:0.4375 75:0.625 76:0.15625 77:0.0625 78:0.03125 79:0.15625 80:0.0625 
0 0 0 0 0 0 0 0.4325347705511921 0.1635365164680284 0 0 0 0 1:0.09375 2:0 3:0.03125 4:0.09375 5:0.03125 6:0.15625 7:0.0625 8:0.28125 9:0.28125 10:0.40625 11:0.03125 12:0.34375 13:0.40625 14:0.25 15:0.4375 16:0.21875 17:0.21875 18:0.09375 19:0.0625 20:0.15625 21:0.5 22:0.5 23:0 24:0.5 25:0.25 26:0.5 27:0.375 28:0.0625 29:0.5 30:0.53125 31:0.375 32:0.375 33:0 34:0.21875 35:0.125 36:0.625 37:0.625 38:0 39:0.46875 40:0.6875 41:0.5 42:0.5 43:0 44:0.5 45:0.25 46:0.5 47:0.5 48:0 49:0.5 50:0.5 51:0.3125 52:0.21875 53:0 54:0.3125 55:0.0625 56:0.6875 57:0.59375 58:0 59:0.6875 60:0.75 61:0.28125 62:0.28125 63:0.03125 64:0.1875 65:0.125 66:0.34375 67:0.46875 68:0.34375 69:0.125 70:0.625 71:0.25 72:0.3125 73:0.375 74:0.53125 75:0.5625 76:0.40625 77:0.125 78:0.03125 79:0.40625 80:0.3125 
0 0 0 0.07110226523311376 0 0 0 0.7288921503405561 0.5489261530525315 0 0 0 0 1:0 2:0 3:0 4:0 5:0 6:0.21875 7:0 8:0.09375 9:0.21875 10:0.125 11:0.125 12:0.0625 13:0.375 14:0.34375 15:0.53125 16:0.3125 17:0.4375 18:0.1875 19:0.15625 20:0.59375 21:0.15625 22:0.09375 23:0 24:0.15625 25:0 26:0.625 27:0.3125 28:0 29:0.625 30:0.8125 31:0.28125 32:0.0625 33:0.0625 34:0.28125 35:0.09375 36:0.6875 37:0.5625 38:0 39:0.625 40:0.8125 41:0.5 42:0.3125 43:0 44:0.5 45:0.3125 46:0.5 47:0.3125 48:0 49:0.5 50:0.5625 51:0.375 52:0.15625 53:0 54:0.375 55:0.15625 56:0.625 57:0.40625 58:0 59:0.625 60:0.6875 61:0.5 62:0.5 63:0.0625 64:0.375 65:0.46875 66:0.4375 67:0.3125 68:0.125 69:0.375 70:0.5 71:0.5 72:0 73:0.0625 74:0.5 75:0.75 76:0.25 77:0 78:0 79:0.25 80:0.125 
0.08402827757572402 0.2985155360228081 0.1030644037939434 0.01049686448819405 0 0 0.07549269463923163 0 0.4669760340075525 0.02697598608582947 0.08842014321373856 0.02502930848626872 0.1612868555458308 1:0.03125 2:0 3:0 4:0.03125 5:0 6:0.25 7:0 8:0.21875 9:0.25 10:0.3125 11:0.09375 12:0.25 13:0.46875 14:0.40625 15:0.46875 16:0.28125 17:0.40625 18:0.25 19:0.125 20:0.5 21:0.46875 22:0.1875 23:0 24:0.46875 25:0.34375 26:0.5 27:0.125 28:0.03125 29:0.5 30:0.5625 31:0.03125 32:0 33:0.03125 34:0.03125 35:0 36:0.75 37:0.6875 38:0 39:0.75 40:0.75 41:0.625 42:0.34375 43:0 44:0.625 45:0.8125 46:0.28125 47:0.15625 48:0 49:0.28125 50:0.0625 51:0.40625 52:0.15625 53:0 54:0.40625 55:0.21875 56:0.53125 57:0.1875 58:0 59:0.53125 60:0.71875 61:0.5625 62:0.625 63:0.09375 64:0.28125 65:0.78125 66:0.15625 67:0.3125 68:0.375 69:0.34375 70:0.40625 71:0.40625 72:0.0625 73:0.3125 74:0.4375 75:0.65625 76:0.28125 77:0.125 78:0.03125 79:0.28125 80:0.125 
0.1955833253300581 0.1105043786320196 0.1254714634298243 0.1164280177442765 0.4378383232557329 0.6681251674627827 0.1756393808936762 0.5181378878265962 0.1871586425937628 0.211091983517667 0.147140456519862 0.153908862793386 0.1473794790730009 1:0.09375 2:0.0625 3:0 4:0.09375 5:0 6:0.28125 7:0.125 8:0.25 9:0.40625 10:0.5 11:0.125 12:0.40625 13:0.375 14:0.3125 15:0.5 16:0.28125 17:0.28125 18:0.03125 19:0.0625 20:0.15625 21:0.375 22:0.28125 23:0 24:0.375 25:0.125 26:0.625 27:0.46875 28:0 29:0.625 30:0.6875 31:0.375 32:0.375 33:0 34:0.15625 35:0.15625 36:0.625 37:0.625 38:0 39:0.46875 40:0.6875 41:0.5 42:0.5 43:0 44:0.5 45:0.25 46:0.5 47:0.5 48:0 49:0.375 50:0.53125 51:0.25 52:0.25 53:0 54:0.25 55:0 56:0.75 57:0.75 58:0 59:0.75 60:0.75 61:0.21875 62:0.21875 63:0 64:0.09375 65:0.03125 66:0.5625 67:0.5625 68:0.15625 69:0.28125 70:0.78125 71:0.3125 72:0.125 73:0.21875 74:0.34375 75:0.59375 76:0.5 77:0.1875 78:0.09375 79:0.5 80:0.4375 
0 0 0 0 0 0.004102053951469756 0 0 0 0 0 0 0 1:0.09375 2:0.0625 3:0 4:0.09375 5:0 6:0.34375 7:0.0625 8:0.25 9:0.40625 10:0.53125 11:0.15625 12:0.40625 13:0.40625 14:0.1875 15:0.5625 16:0.28125 17:0.28125 18:0.09375 19:0.125 20:0.21875 21:0.46875 22:0.25 23:0 24:0.46875 25:0.34375 26:0.53125 27:0.25 28:0 29:0.53125 30:0.53125 31:0.375 32:0.375 33:0 34:0.28125 35:0.125 36:0.625 37:0.625 38:0 39:0.46875 40:0.6875 41:0.5 42:0.5 43:0 44:0.4375 45:0.5 46:0.5 47:0.5 48:0 49:0.375 50:0.3125 51:0.25 52:0.25 53:0 54:0.25 55:0 56:0.75 57:0.75 58:0 59:0.75 60:0.75 61:0.34375 62:0.34375 63:0 64:0.15625 65:0.125 66:0.5 67:0.5 68:0.09375 69:0.15625 70:0.75 71:0.3125 72:0.1875 73:0.15625 74:0.375 75:0.4375 76:0.53125 77:0.25 78:0.0625 79:0.53125 80:0.5625 
0 0.01978885577257761 0 0.1886406327152152 0 0 0 0 0.02108694676530455 0 0 0 0 1:0 2:0 3:0 4:0 5:0 6:0.21875 7:0 8:0.15625 9:0.21875 10:0.1875 11:0.0625 12:0.25 13:0.40625 14:0.34375 15:0.4375 16:0.25 17:0.375 18:0.15625 19:0.1875 20:0.34375 21:0.34375 22:0.15625 23:0 24:0.34375 25:0.125 26:0.53125 27:0.15625 28:0 29:0.53125 30:0.75 31:0.375 32:0.25 33:0.0625 34:0.375 35:0.03125 36:0.75 37:0.75 38:0 39:0.75 40:0.75 41:0.5 42:0.4375 43:0 44:0.5 45:0.5 46:0.5 47:0.375 48:0 49:0.5 50:0.3125 51:0.46875 52:0.25 53:0 54:0.46875 55:0.3125 56:0.53125 57:0.25 58:0 59:0.53125 60:0.5625 61:0.40625 62:0.46875 63:0.09375 64:0.3125 65:0.40625 66:0.3125 67:0.59375 68:0.4375 69:0.59375 70:0.5 71:0.375 72:0.0625 73:0.25 74:0.5 75:0.65625 76:0.21875 77:0.125 78:0.03125 79:0.21875 80:0.09375 
0 0 0 0 0 0.2565874228417106 0 0 0 0 0 0 0 1:0.03125 2:0 3:0 4:0.03125 5:0 6:0.34375 7:0 8:0.15625 9:0.34375 10:0.40625 11:0.125 12:0.25 13:0.46875 14:0.5 15:0.46875 16:0.28125 17:0.5 18:0.28125 19:0.125 20:0.59375 21:0.4375 22:0.21875 23:0.0625 24:0.4375 25:0.34375 26:0.53125 27:0.21875 28:0.0625 29:0.53125 30:0.5625 31:0.03125 32:0 33:0 34:0.03125 35:0 36:0.5 37:0.4375 38:0 39:0.5 40:0.5 41:0.6875 42:0.59375 43:0 44:0.6875 45:0.75 46:0.3125 47:0.21875 48:0 49:0.3125 50:0.0625 51:0.09375 52:0 53:0.09375 54:0.09375 55:0.03125 56:0.59375 57:0.375 58:0.03125 59:0.59375 60:0.8125 61:0.5625 62:0.5625 63:0.15625 64:0.3125 65:0.5625 66:0.21875 67:0.28125 68:0.25 69:0.125 70:0.46875 71:0.4375 72:0.0625 73:0.25 74:0.4375 75:0.6875 76:0.34375 77:0.0625 78:0.15625 79:0.34375 80:0.25 
0.1926915356476059 0.06622887948206231 0.03118921560423782 0.2379838849151791 0 0 0.1178426550702827 0 0.005865100601280157 0 0.1621131771576718 0.08323147686776942 0.09900120246905567 1:0.28125 2:0.0625 3:0.03125 4:0.28125 5:0.1875 6:0.21875 7:0.125 8:0.34375 9:0.46875 10:0.5625 11:0.09375 12:0.53125 13:0.46875 14:0.40625 15:0.40625 16:0.375 17:0.4375 18:0.15625 19:0.09375 20:0.5 21:0.65625 22:0.5 23:0 24:0.65625 25:0.71875 26:0.34375 27:0.1875 28:0 29:0.34375 30:0.09375 31:0.03125 32:0.03125 33:0 34:0 35:0 36:0.71875 37:0.71875 38:0 39:0.625 40:0.78125 41:0.71875 42:0.71875 43:0 44:0.6875 45:0.75 46:0.28125 47:0.28125 48:0 49:0.1875 50:0.03125 51:0 52:0 53:0 54:0 55:0 56:0.75 57:0.75 58:0 59:0.75 60:0.75 61:0.46875 62:0.46875 63:0.03125 64:0.125 65:0.40625 66:0.3125 67:0.46875 68:0.1875 69:0.125 70:0.59375 71:0.15625 72:0.1875 73:0.21875 74:0.28125 75:0.28125 76:0.59375 77:0.25 78:0.0625 79:0.59375 80:0.78125 
0.1135122868126817 0.07769015390684488 0 0.0591043880972157 0 0 0.1143773043421147 0 0.2250965004900331 0.02969817136712018 0.03708515176730801 0.1665901766337675 0.09602872348935009 1:0.21875 2:0 3:0.09375 4:0.21875 5:0.125 6:0.28125 7:0.0625 8:0.34375 9:0.40625 10:0.5625 11:0.09375 12:0.46875 13:0.46875 14:0.375 15:0.40625 16:0.3125 17:0.375 18:0.1875 19:0 20:0.53125 21:0.6875 22:0.59375 23:0 24:0.6875 25:0.75 26:0.3125 27:0.15625 28:0.0625 29:0.3125 30:0.09375 31:0 32:0 33:0 34:0 35:0 36:0.5 37:0.5 38:0.0625 39:0.375 40:0.53125 41:0.75 42:0.75 43:0 44:0.71875 45:0.75 46:0.25 47:0.25 48:0 49:0.21875 50:0 51:0 52:0 53:0 54:0 55:0 56:0.5 57:0.5 58:0 59:0.5 60:0.5 61:0.34375 62:0.34375 63:0.09375 64:0.0625 65:0.3125 66:0.4375 67:0.4375 68:0.3125 69:0 70:0.65625 71:0.25 72:0.09375 73:0.1875 74:0.21875 75:0.40625 76:0.4375 77:0 78:0.25 79:0.4375 80:0.65625 
0 0.07464794423743022 0.3573278214598427 0.3320195316886728 0 0 0 0 0 0 0.0005183155442916639 0 0.2673239517376668 1:0 2:0 3:0 4:0 5:0 6:0 7:0.0625 8:0.09375 9:0.09375 10:0 11:0.15625 12:0.03125 13:0.21875 14:0.28125 15:0.15625 16:0.40625 17:0.4375 18:0.1875 19:0.4375 20:0.46875 21:0.09375 22:0.0625 23:0 24:0.0625 25:0 26:0.125 27:0.21875 28:0.375 29:0.375 30:0.4375 31:0.15625 32:0.3125 33:0.25 34:0.34375 35:0.34375 36:0.6875 37:0.6875 38:0 39:0.65625 40:0.75 41:0 42:0 43:0 44:0 45:0 46:0 47:0 48:0 49:0 50:0 51:0.25 52:0.25 53:0 54:0.25 55:0 56:0.75 57:0.75 58:0 59:0.75 60:0.75 61:0 62:0 63:0 64:0 65:0 66:0 67:0 68:0 69:0 70:0 71:0.21875 72:0.21875 73:0 74:0.1875 75:0 76:0.65625 77:0.6875 78:0.1875 79:0.71875 80:0.65625 
-0.1853459121375543 0.172712034806959 0.3879092434988352 0.1481007116056133 0.2132756056047486 0.1607412444448997 0.2413861357638969 0.1886958276483443 0.2141525122039301 0.1111909468378955 1 0.09433920207815717 0.07250124400741233 1:0.1875 2:0.28125 3:0.25 4:0.28125 5:0.1875 6:0 7:0.25 8:0.5 9:0.5 10:0.4375 11:0.0625 12:0.53125 13:0.5 14:0.46875 15:0.375 16:0.34375 17:0.46875 18:0.15625 19:0.28125 20:0.4375 21:0 22:0 23:0 24:0 25:0 26:0 27:0 28:0 29:0 30:0 31:0.25 32:0.25 33:0 34:0.25 35:0 36:0.75 37:0.75 38:0 39:0.75 40:0.75 41:0 42:0 43:0 44:0 45:0 46:0 47:0 48:0 49:0 50:0 51:0.25 52:0.25 53:0 54:0.25 55:0 56:0.75 57:0.75 58:0 59:0.75 60:0.75 61:0 62:0 63:0 64:0 65:0 66:0 67:0 68:0 69:0 70:0 71:0.21875 72:0.21875 73:0 74:0.1875 75:0 76:0.65625 77:0.6875 78:0.1875 79:0.71875 80:0.65625 
0 0 0 0 0 0 0 0 0 0 0.1435857151156221 0 0 1:0 2:0 3:0 4:0 5:0 6:0.125 7:0.0625 8:0.0625 9:0.15625 10:0.0625 11:0.0625 12:0.0625 13:0.25 14:0.25 15:0.34375 16:0.3125 17:0.125 18:0.25 19:0.46875 20:0.65625 21:0 22:0 23:0 24:0 25:0 26:0.0625 27:0.09375 28:0.0625 29:0 30:0.03125 31:0.4375 32:0.34375 33:0.1875 34:0.5 35:0.53125 36:0.5 37:0.25 38:0 39:0.5 40:0.4375 41:0 42:0 43:0 44:0 45:0 46:0.25 47:0.125 48:0 49:0.25 50:0.0625 51:0.59375 52:0.28125 53:0 54:0.59375 55:0.8125 56:0.15625 57:0.03125 58:0 59:0.15625 60:0.03125 61:0.125 62:0.1875 63:0.1875 64:0.28125 65:0.1875 66:0.34375 67:0.125 68:0.09375 69:0.40625 70:0.625 71:0.4375 72:0.375 73:0.1875 74:0.40625 75:0.53125 76:0.0625 77:0.0625 78:0 79:0.03125 80:0 
0 0 0 0 0 0 0.7488769331074425 0 0 0 0.8454803303676571 0 0 1:0.09375 2:0.0625 3:0 4:0.0625 5:0 6:0.15625 7:0.34375 8:0.5 9:0.46875 10:0.40625 11:0.21875 12:0.3125 13:0.40625 14:0.46875 15:0.5625 16:0.34375 17:0.40625 18:0.09375 19:0.25 20:0.34375 21:0 22:0 23:0 24:0 25:0 26:0 27:0 28:0 29:0 30:0 31:0.53125 32:0.3125 33:0 34:0.53125 35:0.59375 36:0.46875 37:0.25 38:0 39:0.46875 40:0.28125 41:0 42:0 43:0 44:0 45:0 46:0.09375 47:0.0625 48:0 49:0.09375 50:0 51:0.6875 52:0.5 53:0 54:0.6875 55:0.8125 56:0.21875 57:0.1875 58:0 59:0.21875 60:0 61:0.125 62:0.1875 63:0.1875 64:0.28125 65:0.1875 66:0.1875 67:0.25 68:0.21875 69:0.375 70:0.28125 71:0.5 72:0.46875 73:0.03125 74:0.40625 75:0.84375 76:0 77:0.25 78:0.25 79:0.1875 80:0.25 
-0.079749682263157 0.1757299754325112 0.147694365242365 0.1876986893112357 0.2512394814307794 0.1611212415820789 0.2163880035097059 0.1576609365070048 0.1499852648855582 0.1416969173291614 0 0.2046865818529413 0.07592138440278538 1:0.1875 2:0.40625 3:0.375 4:0.40625 5:0.28125 6:0.03125 7:0.34375 8:0.40625 9:0.3125 10:0.4375 11:0.3125 12:0.34375 13:0.1875 14:0.375 15:0.46875 16:0 17:0 18:0 19:0 20:0 21:0 22:0 23:0 24:0 25:0 26:0.5 27:0.5 28:0 29:0.4375 30:0.25 31:0.5 32:0.4375 33:0 34:0.5 35:0.5 36:0 37:0 38:0 39:0 40:0 41:0 42:0 43:0 44:0 45:0 46:0.5 47:0.5 48:0 49:0.5 50:0.25 51:0.5 52:0.5 53:0 54:0.5 55:0.5 56:0 57:0 58:0 59:0 60:0 61:0.125 62:0.1875 63:0.1875 64:0.28125 65:0.1875 66:0.375 67:0.1875 68:0.1875 69:0.4375 70:0.53125 71:0.3125 72:0.375 73:0.25 74:0.1875 75:0.71875 76:0.0625 77:0.25 78:0.25 79:0.125 80:0.28125 
-0.374080215918365 1 0.855481514785096 0.2570635576495897 0.3208379936703084 0.2836389195997962 1 0.335744696984112 0.5910884942834447 0.2193211786985413 1 0.1832798994285912 0.7264528240373286 1:0.09375 2:0.0625 3:0 4:0.0625 5:0 6:0.09375 7:0.46875 8:0.5 9:0.46875 10:0.375 11:0.03125 12:0.375 13:0.5 14:0.4375 15:0.40625 16:0.1875 17:0.34375 18:0.21875 19:0.21875 20:0.59375 21:0 22:0 23:0 24:0 25:0 26:0 27:0 28:0 29:0 30:0 31:0.3125 32:0.15625 33:0 34:0.3125 35:0.0625 36:0.6875 37:0.53125 38:0 39:0.6875 40:0.75 41:0 42:0 43:0 44:0 45:0 46:0 47:0 48:0 49:0 50:0 51:0.53125 52:0.25 53:0 54:0.53125 55:0.59375 56:0.46875 57:0.1875 58:0 59:0.46875 60:0.28125 61:0.125 62:0.1875 63:0.1875 64:0.28125 65:0.1875 66:0.15625 67:0.15625 68:0.25 69:0.375 70:0.3125 71:0.375 72:0.28125 73:0.125 74:0.34375 75:0.9375 76:0.1875 77:0.3125 78:0.25 79:0.15625 80:0.28125 
-0.09024133507677652 0.2497705720268002 0.1526748147266223 0.150084976418627 0.02517968696454268 0.06219738253639746 0 0.06789737587761696 0.04742397895557381 0.178386057362054 0.07361672832314688 0 0 1:0.1875 2:0.21875 3:0.1875 4:0.25 5:0.1875 6:0.0625 7:0.28125 8:0.34375 9:0.34375 10:0.375 11:0.375 12:0.34375 13:0.1875 14:0.40625 15:0.46875 16:0 17:0 18:0 19:0 20:0 21:0 22:0.0625 23:0.0625 24:0.03125 25:0 26:0.5 27:0.5625 28:0.09375 29:0.5 30:0.25 31:0.5 32:0.4375 33:0 34:0.5 35:0.5 36:0 37:0 38:0 39:0 40:0 41:0 42:0 43:0 44:0 45:0 46:0.5 47:0.5 48:0 49:0.5 50:0.25 51:0.5 52:0.5 53:0 54:0.5 55:0.5 56:0 57:0 58:0 59:0 60:0 61:0.1875 62:0.28125 63:0.25 64:0.28125 65:0.1875 66:0.25 67:0.5625 68:0.4375 69:0.65625 70:0.5 71:0.21875 72:0.53125 73:0.34375 74:0.375 75:0.65625 76:0.09375 77:0.46875 78:0.5 79:0.46875 80:0.375 
-0.2071398161393576 0.1775175653486846 0.1271965118324115 0.2068671443650164 0.2262813083944031 0.2258189164252768 0.2294382143688428 0.1766918579973884 0.1976267536890815 0.06267323285405105 0.2722985533311922 0.08846034351222074 0 1:0.1875 2:0.40625 3:0.375 4:0.40625 5:0.28125 6:0.09375 7:0.4375 8:0.5 9:0.46875 10:0.375 11:0.46875 12:0.5 13:0.1875 14:0.46875 15:0.5625 16:0 17:0 18:0 19:0 20:0 21:0 22:0 23:0 24:0 25:0 26:0.25 27:0.25 28:0 29:0.25 30:0 31:0.75 32:0.75 33:0 34:0.75 35:0.75 36:0 37:0 38:0 39:0 40:0 41:0 42:0 43:0 44:0 45:0 46:0.25 47:0.25 48:0 49:0.25 50:0 51:0.75 52:0.75 53:0 54:0.75 55:0.75 56:0 57:0 58:0 59:0 60:0 61:0.125 62:0.1875 63:0.1875 64:0.28125 65:0.1875 66:0.1875 67:0.25 68:0.21875 69:0.375 70:0.28125 71:0.5 72:0.46875 73:0.03125 74:0.40625 75:0.84375 76:0 77:0.25 78:0.25 79:0.1875 80:0.25 
-0.2924685562141986 0.2599050287442889 0.159809856418398 0.2321202542251935 0.03905775516858624 0.251621395439868 0.2434481987811087 0.2017390771473655 0.3582168361874898 0.1444922004935103 0 0.1314973806182327 0.07036220617314677 1:0 2:0 3:0 4:0 5:0 6:0 7:0 8:0.0625 9:0.0625 10:0 11:0.1875 12:0.125 13:0.25 14:0.375 15:0.21875 16:0.25 17:0.34375 18:0.125 19:0.25 20:0.25 21:0.34375 22:0.28125 23:0.34375 24:0.5 25:0.4375 26:0.0625 27:0 28:0.4375 29:0.46875 30:0.5 31:0.34375 32:0.375 33:0.15625 34:0.40625 35:0.5 36:0.5 37:0.5 38:0 39:0.5 40:0.5 41:0 42:0 43:0 44:0 45:0 46:0 47:0 48:0 49:0 50:0 51:0.5 52:0.5 53:0 54:0.5 55:0.25 56:0.5 57:0.5 58:0 59:0.5 60:0.5 61:0 62:0 63:0 64:0 65:0 66:0 67:0 68:0 69:0 70:0 71:0.375 72:0.40625 73:0.0625 74:0.3125 75:0.1875 76:0.375 77:0.375 78:0.125 79:0.46875 80:0.375 
0 0 0 0 0 0 0 0 0 0 1 0 0 1:0 2:0 3:0 4:0 5:0 6:0.09375 7:0.0625 8:0 9:0.0625 10:0 11:0.125 12:0.46875 13:0.5 14:0.40625 15:0.375 16:0.40625 17:0.28125 18:0.25 19:0.46875 20:0.625 21:0 22:0 23:0 24:0 25:0 26:0 27:0 28:0 29:0 30:0 31:0.4375 32:0.28125 33:0 34:0.4375 35:0.1875 36:0.5625 37:0.40625 38:0 39:0.5625 40:0.625 41:0 42:0 43:0 44:0 45:0 46:0.0625 47:0.03125 48:0 49:0.0625 50:0 51:0.5625 52:0.21875 53:0 54:0.5625 55:0.75 56:0.375 57:0.125 58:0 59:0.375 60:0.1875 61:0.125 62:0.1875 63:0.1875 64:0.28125 65:0.1875 66:0.15625 67:0.1875 68:0.28125 69:0.40625 70:0.34375 71:0.5 72:0.46875 73:0.09375 74:0.4375 75:0.84375 76:0.125 77:0.28125 78:0.1875 79:0.125 80:0.1875 
-0.1756241772702935 0 0 0.2360988898961708 0.2836937065206298 0.1553023834278209 0.4117632700834631 0.179757376835851 0.2774247629737777 0.05196313345046766 0.19436019588312 0.07920039645500078 0 1:0 2:0 3:0 4:0 5:0 6:0 7:0.03125 8:0.09375 9:0.09375 10:0 11:0.125 12:0 13:0.25 14:0.25 15:0.25 16:0.40625 17:0.1875 18:0.28125 19:0.46875 20:0.59375 21:0.1875 22:0.21875 23:0.25 24:0.28125 25:0.1875 26:0.125 27:0.09375 28:0.40625 29:0.40625 30:0.5 31:0.28125 32:0.21875 33:0.09375 34:0.375 35:0.71875 36:0.5 37:0.3125 38:0 39:0.5 40:0.40625 41:0 42:0 43:0 44:0 45:0 46:0.125 47:0.09375 48:0 49:0.125 50:0 51:0.6875 52:0.46875 53:0 54:0.6875 55:0.8125 56:0.1875 57:0.125 58:0 59:0.1875 60:0 61:0 62:0 63:0 64:0 65:0 66:0.40625 67:0.25 68:0.21875 69:0.46875 70:0.34375 71:0.5625 72:0.3125 73:0.0625 74:0.59375 75:0.625 76:0 77:0 78:0 79:0 80:0 
0 0 0 0 0 0 0 0 0 0 1 0 0 1:0 2:0 3:0 4:0 5:0 6:0.09375 7:0.0625 8:0 9:0.0625 10:0 11:0.125 12:0.46875 13:0.5 14:0.40625 15:0.375 16:0.40625 17:0.28125 18:0.25 19:0.46875 20:0.625 21:0 22:0 23:0 24:0 25:0 26:0 27:0 28:0 29:0 30:0 31:0.4375 32:0.28125 33:0 34:0.4375 35:0.1875 36:0.5625 37:0.40625 38:0 39:0.5625 40:0.625 41:0 42:0 43:0 44:0 45:0 46:0.0625 47:0.03125 48:0 49:0.0625 50:0 51:0.5625 52:0.21875 53:0 54:0.5625 55:0.75 56:0.375 57:0.125 58:0 59:0.375 60:0.1875 61:0.125 62:0.1875 63:0.1875 64:0.28125 65:0.1875 66:0.15625 67:0.1875 68:0.28125 69:0.40625 70:0.34375 71:0.5 72:0.46875 73:0.09375 74:0.4375 75:0.84375 76:0.125 77:0.28125 78:0.1875 79:0.125 80:0.1875 
0 0.4854532066197329 0.05368486577593288 0 0 0 0 0 0.02647702632503362 0 0 0 0.103683623267295 1:0 2:0 3:0 4:0 5:0 6:0.125 7:0.0625 8:0.0625 9:0.15625 10:0.0625 11:0.0625 12:0.0625 13:0.25 14:0.25 15:0.34375 16:0.25 17:0.1875 18:0.25 19:0.4375 20:0.6875 21:0 22:0 23:0 24:0 25:0 26:0.0625 27:0.09375 28:0.0625 29:0 30:0.03125 31:0.34375 32:0.40625 33:0.25 34:0.5 35:0.25 36:0.59375 37:0.375 38:0 39:0.5625 40:0.6875 41:0 42:0 43:0 44:0 45:0 46:0.09375 47:0 48:0.03125 49:0.09375 50:0.03125 51:0.5625 52:0.28125 53:0.09375 54:0.5625 55:0.78125 56:0.34375 57:0.15625 58:0.0625 59:0.34375 60:0.15625 61:0.125 62:0.1875 63:0.1875 64:0.28125 65:0.1875 66:0.34375 67:0.3125 68:0.15625 69:0.46875 70:0.46875 71:0.34375 72:0.28125 73:0.15625 74:0.25 75:0.6875 76:0.125 77:0.21875 78:0.125 79:0.125 80:0.125 
0 0 0 0 0 0 0 0 0 0 0.31526880481029 0 0 1:0.125 2:0.1875 3:0.1875 4:0.28125 5:0.1875 6:0 7:0.125 8:0.28125 9:0.28125 10:0.34375 11:0.28125 12:0.28125 13:0.28125 14:0.375 15:0.5625 16:0.15625 17:0.15625 18:0 19:0.125 20:0 21:0.0625 22:0.21875 23:0.1875 24:0.125 25:0.09375 26:0 27:0.125 28:0.21875 29:0.21875 30:0.09375 31:0.75 32:0.75 33:0.03125 34:0.6875 35:0.75 36:0.25 37:0.25 38:0 39:0.25 40:0 41:0 42:0 43:0 44:0 45:0 46:0 47:0 48:0 49:0 50:0 51:0.75 52:0.75 53:0 54:0.75 55:0.75 56:0.25 57:0.25 58:0 59:0.25 60:0 61:0.125 62:0.0625 63:0.0625 64:0.15625 65:0.0625 66:0.0625 67:0.125 68:0.25 69:0.25 70:0.28125 71:0.46875 72:0.375 73:0.125 74:0.4375 75:0.84375 76:0.21875 77:0.34375 78:0.21875 79:0.15625 80:0.34375 
0 0 0.02802264001987674 0 0 0 0.04050472282808746 0 0 0 0.01979726067340289 0 0.261375882088829 1:0.1875 2:0.40625 3:0.375 4:0.40625 5:0.28125 6:0.03125 7:0.5 8:0.5 9:0.4375 10:0.375 11:0.25 12:0.375 13:0.15625 14:0.1875 15:0.34375 16:0 17:0 18:0 19:0 20:0 21:0 22:0 23:0 24:0 25:0 26:0.25 27:0.25 28:0 29:0.25 30:0 31:0.75 32:0.75 33:0 34:0.75 35:0.75 36:0 37:0 38:0 39:0 40:0 41:0 42:0 43:0 44:0 45:0 46:0.25 47:0.25 48:0 49:0.25 50:0 51:0.75 52:0.75 53:0 54:0.75 55:0.75 56:0 57:0 58:0 59:0 60:0 61:0.125 62:0.1875 63:0.1875 64:0.28125 65:0.1875 66:0.21875 67:0.15625 68:0.21875 69:0.34375 70:0.34375 71:0.46875 72:0.4375 73:0.125 74:0.375 75:0.84375 76:0.0625 77:0.25 78:0.25 79:0.125 80:0.28125 
0 0 0 0 0 0 0.07593145304887271 0 0.005196261301656262 0 0 0 0 1:0.09375 2:0 3:0.15625 4:0.21875 5:0.15625 6:0.09375 7:0.15625 8:0.3125 9:0.28125 10:0.4375 11:0.375 12:0.25 13:0.25 14:0.4375 15:0.65625 16:0.15625 17:0.125 18:0 19:0.125 20:0 21:0.25 22:0.28125 23:0.1875 24:0.28125 25:0.28125 26:0.34375 27:0.25 28:0.15625 29:0.40625 30:0.0625 31:0.75 32:0.75 33:0 34:0.75 35:0.75 36:0 37:0 38:0 39:0 40:0 41:0 42:0 43:0 44:0 45:0 46:0.25 47:0.25 48:0 49:0.25 50:0 51:0.75 52:0.75 53:0 54:0.75 55:0.75 56:0 57:0 58:0 59:0 60:0 61:0.125 62:0.125 63:0.125 64:0.21875 65:0.125 66:0.1875 67:0.25 68:0.21875 69:0.375 70:0.28125 71:0.4375 72:0.4375 73:0.09375 74:0.375 75:0.875 76:0.0625 77:0.25 78:0.25 79:0.125 80:0.28125 
-0.1505696448789523 0.03167741840848524 0.5069636950901678 0.1637945677081822 0.1649732260707421 0.1171083450701051 0.02176245663891065 0.1051835704885944 0.06763624597147425 0.1231716115976195 1 0.1527341202547882 0.330911956210116 1:0 2:0 3:0 4:0 5:0 6:0.09375 7:0.0625 8:0 9:0.0625 10:0 11:0.09375 12:0.46875 13:0.5 14:0.4375 15:0.375 16:0.34375 17:0.34375 18:0.28125 19:0.40625 20:0.65625 21:0 22:0 23:0 24:0 25:0 26:0 27:0 28:0 29:0 30:0 31:0.375 32:0.25 33:0 34:0.375 35:0.125 36:0.5625 37:0.28125 38:0 39:0.5625 40:0.75 41:0 42:0 43:0 44:0 45:0 46:0.03125 47:0 48:0 49:0.03125 50:0 51:0.5625 52:0.1875 53:0 54:0.5625 55:0.65625 56:0.40625 57:0.1875 58:0 59:0.40625 60:0.25 61:0.125 62:0.1875 63:0.1875 64:0.28125 65:0.1875 66:0.15625 67:0.1875 68:0.28125 69:0.40625 70:0.34375 71:0.46875 72:0.40625 73:0.09375 74:0.40625 75:0.875 76:0.15625 77:0.28125 78:0.1875 79:0.15625 80:0.1875 
-9.468922379083616e-005 0 0 0 0 0 0 0 0 0 0 0 0 1:0.1875 2:0.40625 3:0.375 4:0.40625 5:0.28125 6:0.09375 7:0.4375 8:0.5 9:0.46875 10:0.375 11:0.46875 12:0.5 13:0.1875 14:0.46875 15:0.5625 16:0 17:0 18:0 19:0 20:0 21:0 22:0 23:0 24:0 25:0 26:0.25 27:0.25 28:0 29:0.25 30:0 31:0.75 32:0.75 33:0 34:0.75 35:0.75 36:0 37:0 38:0 39:0 40:0 41:0 42:0 43:0 44:0 45:0 46:0.25 47:0.25 48:0 49:0.25 50:0 51:0.75 52:0.75 53:0 54:0.75 55:0.75 56:0 57:0 58:0 59:0 60:0 61:0.125 62:0.1875 63:0.1875 64:0.28125 65:0.1875 66:0.1875 67:0.25 68:0.21875 69:0.375 70:0.28125 71:0.5 72:0.46875 73:0.03125 74:0.40625 75:0.84375 76:0 77:0.25 78:0.25 79:0.1875 80:0.25 
-0.003758718535106089 0 0 0 0.142656223344432 0.1963553090518659 0 0 0 0.05262891582478063 0 0.1309906843703425 0 1:0 2:0 3:0 4:0 5:0 6:0.09375 7:0.0625 8:0 9:0.0625 10:0 11:0.09375 12:0.25 13:0.34375 14:0.3125 15:0.375 16:0.40625 17:0.1875 18:0.28125 19:0.46875 20:0.59375 21:0 22:0 23:0 24:0 25:0 26:0.09375 27:0.0625 28:0 29:0.09375 30:0 31:0.53125 32:0.25 33:0.125 34:0.5 35:0.71875 36:0.34375 37:0.15625 38:0.0625 39:0.34375 40:0.21875 41:0 42:0 43:0 44:0 45:0 46:0.4375 47:0.09375 48:0 49:0.4375 50:0.34375 51:0.5625 52:0.28125 53:0 54:0.5625 55:0.5625 56:0 57:0 58:0 59:0 60:0 61:0.3125 62:0.3125 63:0.28125 64:0.4375 65:0.28125 66:0.53125 67:0.21875 68:0.09375 69:0.59375 70:0.78125 71:0.125 72:0 73:0 74:0.125 75:0.03125 76:0 77:0 78:0 79:0 80:0 
-0.1555035880932362 0 0 0.1854958630599765 0.2359645913826587 0.1946556483051027 0.0009914974004598229 0.1356329524583408 0.08844601446001195 0.2117593104147853 0 0.2383732995713804 0 1:0.1875 2:0.125 3:0.09375 4:0.15625 5:0.09375 6:0 7:0.375 8:0.375 9:0.375 10:0.375 11:0.1875 12:0.21875 13:0.28125 14:0.375 15:0.46875 16:0.375 17:0.34375 18:0.1875 19:0.375 20:0.34375 21:0 22:0.03125 23:0.03125 24:0 25:0 26:0 27:0.125 28:0.125 29:0.125 30:0 31:0.75 32:0.71875 33:0.03125 34:0.6875 35:0.75 36:0.25 37:0.21875 38:0 39:0.25 40:0 41:0 42:0 43:0 44:0 45:0 46:0 47:0 48:0 49:0 50:0 51:0.75 52:0.75 53:0 54:0.75 55:0.75 56:0.25 57:0.25 58:0 59:0.25 60:0 61:0 62:0 63:0 64:0 65:0 66:0 67:0 68:0 69:0 70:0 71:0.5625 72:0.5625 73:0.15625 74:0.3125 75:0.5625 76:0.28125 77:0.34375 78:0.25 79:0.0625 80:0.4375 
-0.1976306966552031 0.1311423964323625 0.190820212832249 0.2755077618443727 0.02694788827372597 0.1722003077702059 1 0.2254294068331852 0.2192144368849197 0.4880324317028444 0 0.09880062291779121 0.2740622675022958 1:0 2:0 3:0 4:0 5:0 6:0 7:0 8:0 9:0 10:0 11:0.3125 12:0.34375 13:0.25 14:0.34375 15:0.375 16:0.28125 17:0.34375 18:0.09375 19:0.1875 20:0.28125 21:0 22:0 23:0 24:0 25:0 26:0.125 27:0.09375 28:0 29:0.125 30:0 31:0.5625 32:0.21875 33:0 34:0.5625 35:0.75 36:0.3125 37:0.0625 38:0 39:0.3125 40:0.15625 41:0 42:0 43:0 44:0 45:0 46:0.46875 47:0.125 48:0 49:0.46875 50:0.4375 51:0.53125 52:0.1875 53:0 54:0.53125 55:0.5 56:0 57:0 58:0 59:0 60:0 61:0.375 62:0.1875 63:0.21875 64:0.4375 65:0.34375 66:0.5 67:0.03125 68:0.0625 69:0.53125 70:0.6875 71:0.09375 72:0.03125 73:0 74:0.09375 75:0 76:0 77:0 78:0 79:0 80:0 
-0.1274065109892789 0.2301360054475714 0.2864905533775248 0.1936415162842579 0.198127002724303 0.1375489432575775 0.479296509910462 0.1313541316788014 0.1479766275850846 0.08019086983391992 1 0.0684715193245098 0.6760570333498736 1:0.1875 2:0.15625 3:0.125 4:0.15625 5:0.09375 6:0 7:0.5 8:0.5 9:0.5 10:0.375 11:0.15625 12:0.40625 13:0.34375 14:0.125 15:0.5 16:0.21875 17:0.21875 18:0.03125 19:0.125 20:0.09375 21:0 22:0 23:0 24:0 25:0 26:0 27:0 28:0 29:0 30:0 31:0.5 32:0.5 33:0 34:0.5 35:0.5 36:0.5 37:0.5 38:0 39:0.5 40:0.25 41:0 42:0 43:0 44:0 45:0 46:0 47:0 48:0 49:0 50:0 51:0.5 52:0.5 53:0 54:0.5 55:0.5 56:0.5 57:0.5 58:0 59:0.5 60:0.25 61:0 62:0 63:0 64:0 65:0 66:0 67:0 68:0 69:0 70:0 71:0.3125 72:0.40625 73:0.125 74:0.3125 75:0.3125 76:0.3125 77:0.25 78:0.0625 79:0.34375 80:0.15625 
0 0 0 0 0 0 0 0 0 0 0.1778617190749351 0 0 1:0.09375 2:0.0625 3:0 4:0.0625 5:0 6:0.09375 7:0.46875 8:0.5 9:0.46875 10:0.375 11:0.125 12:0.53125 13:0.4375 14:0.4375 15:0.4375 16:0.28125 17:0.34375 18:0.09375 19:0.1875 20:0.28125 21:0 22:0 23:0 24:0 25:0 26:0 27:0 28:0 29:0 30:0 31:0.5 32:0.5 33:0 34:0.5 35:0.25 36:0.5 37:0.5 38:0 39:0.5 40:0.5 41:0 42:0 43:0 44:0 45:0 46:0 47:0 48:0 49:0 50:0 51:0.5 52:0.5 53:0 54:0.5 55:0.25 56:0.5 57:0.5 58:0 59:0.5 60:0.5 61:0 62:0 63:0 64:0 65:0 66:0 67:0 68:0 69:0 70:0 71:0.375 72:0.40625 73:0.0625 74:0.3125 75:0.1875 76:0.375 77:0.375 78:0.125 79:0.46875 80:0.375 
-0.02228456120152752 0.3758959035107257 0.2122700162084978 0.1093778171941818 0.1380605903826788 0.004017215251601741 0 0.2763549812221092 0.1222631945125718 0.08283982458520753 0.5141423173660011 0.0348352578141039 0 1:0 2:0 3:0 4:0 5:0 6:0.15625 7:0 8:0.09375 9:0.15625 10:0.09375 11:0.0625 12:0.125 13:0.25 14:0.25 15:0.46875 16:0.375 17:0.1875 18:0.3125 19:0.46875 20:0.59375 21:0 22:0 23:0 24:0 25:0 26:0.125 27:0.21875 28:0.125 29:0.125 30:0.125 31:0.59375 32:0.34375 33:0.21875 34:0.59375 35:0.625 36:0.4375 37:0.28125 38:0.0625 39:0.4375 40:0.34375 41:0 42:0 43:0 44:0 45:0 46:0.40625 47:0.1875 48:0.09375 49:0.40625 50:0.21875 51:0.5 52:0.25 53:0.09375 54:0.5 55:0.6875 56:0.09375 57:0.0625 58:0 59:0.09375 60:0 61:0.125 62:0.1875 63:0.1875 64:0.28125 65:0.1875 66:0.5625 67:0.375 68:0.0625 69:0.59375 70:0.8125 71:0.3125 72:0.125 73:0.0625 74:0.3125 75:0.09375 76:0 77:0 78:0 79:0 80:0 
0 0 0 0 0 0 0 0 0 0 0.003135841313584067 0 0 1:0.125 2:0.125 3:0.125 4:0.21875 5:0.125 6:0 7:0.125 8:0.25 9:0.25 10:0.3125 11:0.125 12:0.15625 13:0.3125 14:0.34375 15:0.5 16:0.3125 17:0.34375 18:0.0625 19:0.25 20:0.15625 21:0.0625 22:0.15625 23:0.125 24:0.0625 25:0.0625 26:0 27:0.1875 28:0.25 29:0.25 30:0.125 31:0.5 32:0.5 33:0.0625 34:0.46875 35:0.5 36:0.5 37:0.5 38:0 39:0.5 40:0.25 41:0 42:0 43:0 44:0 45:0 46:0 47:0 48:0 49:0 50:0 51:0.5 52:0.5 53:0 54:0.5 55:0.5 56:0.5 57:0.5 58:0 59:0.5 60:0.25 61:0 62:0 63:0 64:0 65:0 66:0.125 67:0.125 68:0.125 69:0.21875 70:0.125 71:0.34375 72:0.25 73:0.125 74:0.4375 75:0.65625 76:0.34375 77:0.4375 78:0.1875 79:0.1875 80:0.53125 
0 0.2105398945051851 0.4681035601857917 0 0.1174504946542968 0 0.05561389817180099 0 0.07643065391983056 0 0.4956049675194201 0 0.03038270067641826 1:0.125 2:0.125 3:0.125 4:0.21875 5:0.125 6:0.0625 7:0.0625 8:0.25 9:0.25 10:0.34375 11:0.21875 12:0.21875 13:0.40625 14:0.40625 15:0.5 16:0.375 17:0.46875 18:0.125 19:0.375 20:0.375 21:0.0625 22:0.15625 23:0.125 24:0.0625 25:0.0625 26:0 27:0.1875 28:0.25 29:0.25 30:0.125 31:0.53125 32:0.5 33:0.03125 34:0.53125 35:0.25 36:0.5 37:0.5 38:0 39:0.5 40:0.5 41:0 42:0 43:0 44:0 45:0 46:0 47:0 48:0 49:0 50:0 51:0.5 52:0.5 53:0 54:0.5 55:0.25 56:0.5 57:0.5 58:0 59:0.5 60:0.5 61:0 62:0 63:0 64:0 65:0 66:0.125 67:0.0625 68:0.0625 69:0.15625 70:0.0625 71:0.34375 72:0.3125 73:0.15625 74:0.46875 75:0.46875 76:0.34375 77:0.40625 78:0.09375 79:0.25 80:0.65625 
0 0 0.0393647098430964 0 0 0 0 0 0 0 0.02064775883614017 0 0 1:0 2:0.03125 3:0.0625 4:0.0625 5:0 6:0 7:0.0625 8:0.15625 9:0.15625 10:0.03125 11:0.0625 12:0.1875 13:0.25 14:0.28125 15:0.125 16:0.46875 17:0.28125 18:0.1875 19:0.53125 20:0.625 21:0.1875 22:0.25 23:0.1875 24:0.21875 25:0.1875 26:0 27:0.3125 28:0.34375 29:0.34375 30:0.375 31:0.1875 32:0.28125 33:0.25 34:0.34375 35:0.28125 36:0.6875 37:0.6875 38:0 39:0.65625 40:0.75 41:0 42:0 43:0 44:0 45:0 46:0 47:0 48:0 49:0 50:0 51:0.25 52:0.25 53:0 54:0.25 55:0 56:0.75 57:0.75 58:0 59:0.75 60:0.75 61:0 62:0 63:0 64:0 65:0 66:0 67:0 68:0 69:0 70:0 71:0.21875 72:0.21875 73:0 74:0.1875 75:0 76:0.65625 77:0.6875 78:0.1875 79:0.71875 80:0.65625 
-0.3875075418389281 0.2772980564135456 0.3294437570599499 0.502281026378945 0.5159718802762563 0.5898878354470539 0.2702457625964114 0.4765147685113321 0.4778638877729474 0.7245957233264025 0 0.6172299180089534 0.1939177459132184 1:0 2:0 3:0.03125 4:0.03125 5:0 6:0 7:0.125 8:0.125 9:0.125 10:0 11:0.25 12:0.0625 13:0.09375 14:0.3125 15:0.125 16:0.46875 17:0.375 18:0.1875 19:0.5 20:0.53125 21:0.1875 22:0.28125 23:0.34375 24:0.375 25:0.3125 26:0.15625 27:0.28125 28:0.375 29:0.5 30:0.4375 31:0.375 32:0.25 33:0.09375 34:0.40625 35:0.90625 36:0.25 37:0.0625 38:0.0625 39:0.25 40:0.09375 41:0.03125 42:0 43:0 44:0.03125 45:0 46:0.53125 47:0.21875 48:0.0625 49:0.53125 50:0.5625 51:0.4375 52:0.15625 53:0.0625 54:0.4375 55:0.375 56:0 57:0 58:0 59:0 60:0 61:0.40625 62:0.28125 63:0.125 64:0.40625 65:0.28125 66:0.40625 67:0.0625 68:0.09375 69:0.46875 70:0.53125 71:0.03125 72:0 73:0 74:0.03125 75:0 76:0 77:0 78:0 79:0 80:0 
0 0 0 0 0 0 0 0 0 0 0 0 0.003548715950664957 1:0 2:0 3:0.03125 4:0.03125 5:0 6:0 7:0.125 8:0.125 9:0.125 10:0 11:0.125 12:0.03125 13:0.1875 14:0.1875 15:0.09375 16:0.4375 17:0.28125 18:0.28125 19:0.5 20:0.625 21:0.1875 22:0.15625 23:0.09375 24:0.125 25:0.09375 26:0.03125 27:0.375 28:0.375 29:0.40625 30:0.375 31:0.3125 32:0.25 33:0.15625 34:0.375 35:0.84375 36:0.4375 37:0.21875 38:0.0625 39:0.4375 40:0.21875 41:0 42:0 43:0 44:0 45:0 46:0.46875 47:0.125 48:0 49:0.46875 50:0.375 51:0.5 52:0.125 53:0 54:0.5 55:0.5625 56:0.03125 57:0 58:0 59:0.03125 60:0 61:0.25 62:0.09375 63:0.15625 64:0.34375 65:0.21875 66:0.5625 67:0.1875 68:0.0625 69:0.5625 70:0.78125 71:0.15625 72:0.03125 73:0 74:0.15625 75:0.03125 76:0 77:0 78:0 79:0 80:0 
0 0 0.1829956710349635 0 0 0 0 0 0 0 0 0 0 1:0 2:0 3:0 4:0 5:0 6:0.0625 7:0 8:0.125 9:0.125 10:0.03125 11:0.09375 12:0.15625 13:0.25 14:0.3125 15:0.25 16:0.40625 17:0.4375 18:0.1875 19:0.4375 20:0.46875 21:0.21875 22:0.15625 23:0.09375 24:0.15625 25:0.09375 26:0.125 27:0.0625 28:0.375 29:0.375 30:0.5 31:0.28125 32:0.25 33:0.25 34:0.375 35:0.21875 36:0.71875 37:0.71875 38:0 39:0.6875 40:0.75 41:0 42:0 43:0 44:0 45:0 46:0 47:0 48:0 49:0 50:0 51:0.25 52:0.25 53:0 54:0.25 55:0 56:0.75 57:0.75 58:0 59:0.75 60:0.75 61:0 62:0 63:0 64:0 65:0 66:0 67:0 68:0 69:0 70:0 71:0.21875 72:0.21875 73:0 74:0.1875 75:0 76:0.65625 77:0.6875 78:0.1875 79:0.71875 80:0.65625 
-0.07314022640390472 0.009135327343447689 0 0 0.313061870523436 0.2210281280746042 0.1087215019379844 0.1333099050020084 0 0.1755881250998989 0 0.1089320314990243 0 1:0 2:0 3:0.03125 4:0.03125 5:0 6:0 7:0.125 8:0.125 9:0.125 10:0 11:0.125 12:0.09375 13:0.1875 14:0.28125 15:0.0625 16:0.4375 17:0.46875 18:0.1875 19:0.46875 20:0.46875 21:0.1875 22:0.15625 23:0.09375 24:0.125 25:0.09375 26:0 27:0.375 28:0.375 29:0.375 30:0.375 31:0.15625 32:0.40625 33:0.3125 34:0.375 35:0.375 36:0.65625 37:0.65625 38:0 39:0.625 40:0.75 41:0 42:0 43:0 44:0 45:0 46:0 47:0 48:0 49:0 50:0 51:0.25 52:0.25 53:0 54:0.25 55:0 56:0.75 57:0.75 58:0 59:0.75 60:0.75 61:0 62:0 63:0 64:0 65:0 66:0 67:0 68:0 69:0 70:0 71:0.21875 72:0.21875 73:0 74:0.1875 75:0 76:0.65625 77:0.6875 78:0.1875 79:0.71875 80:0.65625 
-0.1905186499397406 0.2459025249124237 0.1539203831403988 0.3288562773659063 0.2521767829175857 0.3303793998576765 0.0007350246142471929 0.2843427109833621 0.2161849977750963 0.2466625290459658 0 0.2817259301956257 0.03748622763302021 1:0.0625 2:0.0625 3:0.125 4:0.15625 5:0.0625 6:0.15625 7:0.0625 8:0.21875 9:0.3125 10:0.25 11:0.25 12:0.34375 13:0.125 14:0.25 15:0.25 16:0 17:0 18:0 19:0 20:0 21:0.125 22:0.21875 23:0.125 24:0.125 25:0.125 26:0.375 27:0.53125 28:0.1875 29:0.4375 30:0.4375 31:0.5 32:0.5 33:0 34:0.5 35:0.5 36:0 37:0 38:0 39:0 40:0 41:0 42:0 43:0 44:0 45:0 46:0.5 47:0.5 48:0 49:0.5 50:0.25 51:0.5 52:0.5 53:0 54:0.5 55:0.5 56:0 57:0 58:0 59:0 60:0 61:0.1875 62:0.28125 63:0.25 64:0.28125 65:0.1875 66:0.25 67:0.5625 68:0.4375 69:0.65625 70:0.5 71:0.21875 72:0.53125 73:0.34375 74:0.375 75:0.65625 76:0.09375 77:0.46875 78:0.5 79:0.46875 80:0.375 
0 0.2479267931709803 0.1217171869913795 0 0 0 0.6418235509992014 0 0.2809655659903056 0 0.009215967114581785 0 0.1993834935381269 1:0.0625 2:0.0625 3:0.125 4:0.15625 5:0.0625 6:0 7:0.25 8:0.25 9:0.25 10:0.125 11:0.0625 12:0.125 13:0.25 14:0.25 15:0.15625 16:0.34375 17:0.1875 18:0.28125 19:0.40625 20:0.53125 21:0.1875 22:0.25 23:0.125 24:0.0625 25:0.125 26:0.1875 27:0.15625 28:0.25 29:0.25 30:0.4375 31:0.40625 32:0.34375 33:0.25 34:0.46875 35:0.65625 36:0.46875 37:0.25 38:0.0625 39:0.46875 40:0.40625 41:0 42:0 43:0 44:0 45:0 46:0.28125 47:0.1875 48:0.03125 49:0.28125 50:0.125 51:0.5625 52:0.3125 53:0.09375 54:0.5625 55:0.75 56:0.15625 57:0.125 58:0 59:0.15625 60:0 61:0.15625 62:0.125 63:0 64:0.125 65:0 66:0.5625 67:0.21875 68:0.25 69:0.5625 70:0.71875 71:0.28125 72:0.125 73:0.09375 74:0.28125 75:0.21875 76:0 77:0 78:0 79:0 80:0 
0 0 0 0 0 0 0 0 0 0 0.3154874934238804 0 0 1:0 2:0 3:0 4:0 5:0 6:0 7:0.09375 8:0.125 9:0.125 10:0 11:0.125 12:0.03125 13:0.1875 14:0.1875 15:0.09375 16:0.4375 17:0.28125 18:0.28125 19:0.5 20:0.625 21:0.21875 22:0.15625 23:0.09375 24:0.15625 25:0.09375 26:0 27:0.21875 28:0.375 29:0.375 30:0.4375 31:0.3125 32:0.375 33:0.1875 34:0.375 35:0.6875 36:0.5 37:0.375 38:0.0625 39:0.5 40:0.28125 41:0 42:0 43:0 44:0 45:0 46:0.21875 47:0.15625 48:0 49:0.21875 50:0 51:0.625 52:0.40625 53:0.09375 54:0.625 55:0.8125 56:0.15625 57:0.0625 58:0.03125 59:0.15625 60:0.0625 61:0 62:0 63:0 64:0 65:0 66:0.4375 67:0.40625 68:0.3125 69:0.5625 70:0.40625 71:0.40625 72:0.1875 73:0.09375 74:0.46875 75:0.46875 76:0 77:0 78:0 79:0 80:0 
-0.1383417189538132 0 0 0.1000937686864777 0.2076513055079406 0.2288585658979828 0 0.2656174280678621 0.0847023592686415 0.1046541101840622 0 0.08873185362655243 0 1:0 2:0 3:0 4:0 5:0 6:0.125 7:0.1875 8:0.1875 9:0.28125 10:0.1875 11:0.0625 12:0.1875 13:0.25 14:0.28125 15:0.25 16:0.53125 17:0.34375 18:0.1875 19:0.59375 20:0.71875 21:0 22:0 23:0 24:0 25:0 26:0.0625 27:0.21875 28:0.1875 29:0.125 30:0.09375 31:0.4375 32:0.46875 33:0.1875 34:0.5 35:0.375 36:0.5 37:0.375 38:0 39:0.5 40:0.59375 41:0 42:0 43:0 44:0 45:0 46:0 47:0 48:0 49:0 50:0 51:0.65625 52:0.4375 53:0 54:0.65625 55:0.71875 56:0.34375 57:0.125 58:0 59:0.34375 60:0.125 61:0.1875 62:0.3125 63:0.28125 64:0.34375 65:0.28125 66:0.15625 67:0.40625 68:0.375 69:0.5 70:0.375 71:0.40625 72:0.40625 73:0.1875 74:0.46875 75:0.90625 76:0.0625 77:0.40625 78:0.375 79:0.4375 80:0.375 
-0.001251139308904198 0 0.03409084168591058 0.3885433598294659 0 0.07061901299537701 0 0 0 0.03229838361800498 0 0.08679051008472469 0.0006849395180300876 1:0 2:0 3:0 4:0 5:0 6:0 7:0 8:0 9:0 10:0 11:0.21875 12:0.09375 13:0 14:0.21875 15:0.0625 16:0.40625 17:0.375 18:0.1875 19:0.4375 20:0.46875 21:0.09375 22:0.0625 23:0 24:0.0625 25:0 26:0.125 27:0.15625 28:0.46875 29:0.46875 30:0.46875 31:0.3125 32:0.40625 33:0.375 34:0.53125 35:0.5625 36:0.5 37:0.4375 38:0 39:0.5 40:0.5 41:0 42:0 43:0 44:0 45:0 46:0 47:0 48:0 49:0 50:0 51:0.5 52:0.5 53:0 54:0.5 55:0.25 56:0.5 57:0.5 58:0 59:0.5 60:0.5 61:0 62:0 63:0 64:0 65:0 66:0 67:0 68:0 69:0 70:0 71:0.375 72:0.40625 73:0.0625 74:0.3125 75:0.1875 76:0.375 77:0.375 78:0.125 79:0.46875 80:0.375 
0 0 0 0 0.1526737198131136 0 0 0 0.0244223662911535 0 0 0 0 1:0 2:0 3:0 4:0 5:0 6:0 7:0 8:0.125 9:0.125 10:0.03125 11:0.125 12:0.15625 13:0.21875 14:0.3125 15:0.15625 16:0.40625 17:0.375 18:0.1875 19:0.4375 20:0.46875 21:0.34375 22:0.28125 23:0.21875 24:0.34375 25:0.28125 26:0.28125 27:0 28:0.34375 29:0.4375 30:0.5625 31:0.375 32:0.40625 33:0.1875 34:0.4375 35:0.46875 36:0.5 37:0.4375 38:0 39:0.5 40:0.5 41:0 42:0 43:0 44:0 45:0 46:0 47:0 48:0 49:0 50:0 51:0.5 52:0.5 53:0 54:0.5 55:0.25 56:0.5 57:0.5 58:0 59:0.5 60:0.5 61:0 62:0 63:0 64:0 65:0 66:0 67:0 68:0 69:0 70:0 71:0.375 72:0.40625 73:0.0625 74:0.3125 75:0.1875 76:0.375 77:0.375 78:0.125 79:0.46875 80:0.375 
-0.2728739024854061 0.2046876481782861 0.03518751195137998 0.2843591491557054 0.1996899145643716 0.2620825524699051 0.1779056674550058 0.234746563794683 0.2918796993197863 0.1688240855916548 0 0.1661628910698262 0.06450102244185925 1:0 2:0 3:0 4:0 5:0 6:0.0625 7:0 8:0.125 9:0.125 10:0.03125 11:0 12:0.125 13:0.25 14:0.25 15:0.25 16:0.4375 17:0.28125 18:0.21875 19:0.5 20:0.625 21:0.21875 22:0.15625 23:0.09375 24:0.15625 25:0.09375 26:0.125 27:0.0625 28:0.375 29:0.375 30:0.5 31:0.28125 32:0.25 33:0.25 34:0.375 35:0.21875 36:0.71875 37:0.71875 38:0 39:0.6875 40:0.75 41:0 42:0 43:0 44:0 45:0 46:0 47:0 48:0 49:0 50:0 51:0.25 52:0.25 53:0 54:0.25 55:0 56:0.75 57:0.75 58:0 59:0.75 60:0.75 61:0 62:0 63:0 64:0 65:0 66:0 67:0 68:0 69:0 70:0 71:0.21875 72:0.21875 73:0 74:0.1875 75:0 76:0.65625 77:0.6875 78:0.1875 79:0.71875 80:0.65625 
-0.04580042183400489 1 0.5749138022215354 0 0 0 1 0.1241933798230115 0.3330063911086933 0 1 0 0.4943351143433979 1:0 2:0 3:0 4:0 5:0 6:0.1875 7:0.15625 8:0.125 9:0.15625 10:0.09375 11:0.03125 12:0.5 13:0.5 14:0.4375 15:0.375 16:0.25 17:0.375 18:0.15625 19:0.1875 20:0.34375 21:0 22:0 23:0 24:0 25:0 26:0 27:0 28:0 29:0 30:0 31:0.375 32:0.15625 33:0 34:0.375 35:0.1875 36:0.625 37:0.40625 38:0 39:0.625 40:0.6875 41:0 42:0 43:0 44:0 45:0 46:0.15625 47:0.03125 48:0 49:0.15625 50:0.03125 51:0.5625 52:0.1875 53:0 54:0.5625 55:0.78125 56:0.28125 57:0.09375 58:0 59:0.28125 60:0.09375 61:0.125 62:0.125 63:0.1875 64:0.28125 65:0.1875 66:0.3125 67:0.34375 68:0.25 69:0.53125 70:0.53125 71:0.34375 72:0.3125 73:0.125 74:0.25 75:0.6875 76:0.125 77:0.21875 78:0.125 79:0.125 80:0.125 
0 0 0 0 0 0 0 0 0 0 0.5202510146693332 0 0 1:0 2:0 3:0 4:0 5:0 6:0.09375 7:0.0625 8:0 9:0.0625 10:0 11:0.125 12:0.46875 13:0.5 14:0.40625 15:0.375 16:0.40625 17:0.28125 18:0.25 19:0.46875 20:0.625 21:0 22:0 23:0 24:0 25:0 26:0 27:0 28:0 29:0 30:0 31:0.4375 32:0.28125 33:0 34:0.4375 35:0.1875 36:0.5625 37:0.40625 38:0 39:0.5625 40:0.625 41:0 42:0 43:0 44:0 45:0 46:0.0625 47:0.03125 48:0 49:0.0625 50:0 51:0.5625 52:0.21875 53:0 54:0.5625 55:0.75 56:0.375 57:0.125 58:0 59:0.375 60:0.1875 61:0.125 62:0.1875 63:0.1875 64:0.28125 65:0.1875 66:0.15625 67:0.1875 68:0.28125 69:0.40625 70:0.34375 71:0.5 72:0.46875 73:0.09375 74:0.4375 75:0.84375 76:0.125 77:0.28125 78:0.1875 79:0.125 80:0.1875 
0 0 0 0 0.3871848834545241 0 0 0 0 0 0 0 0 1:0 2:0 3:0.125 4:0.125 5:0.03125 6:0 7:0.25 8:0.25 9:0.25 10:0.125 11:0.34375 12:0.125 13:0.1875 14:0.46875 15:0.5 16:0.34375 17:0.28125 18:0.0625 19:0.28125 20:0.15625 21:0.1875 22:0.28125 23:0.25 24:0.28125 25:0.28125 26:0 27:0.125 28:0.25 29:0.25 30:0.28125 31:0.625 32:0.65625 33:0.0625 34:0.5625 35:0.8125 36:0.25 37:0.25 38:0 39:0.25 40:0 41:0 42:0 43:0 44:0 45:0 46:0 47:0 48:0 49:0 50:0 51:0.75 52:0.75 53:0 54:0.75 55:0.75 56:0.25 57:0.25 58:0 59:0.25 60:0 61:0.125 62:0.1875 63:0.1875 64:0.28125 65:0.1875 66:0.0625 67:0.125 68:0.25 69:0.25 70:0.28125 71:0.46875 72:0.375 73:0.125 74:0.4375 75:0.84375 76:0.21875 77:0.34375 78:0.21875 79:0.15625 80:0.34375 
0 0.6459542260593404 0 0 0 0 0 0 0 0 0 0 0 1:0 2:0 3:0 4:0 5:0 6:0.125 7:0.0625 8:0.0625 9:0.15625 10:0.0625 11:0.0625 12:0.1875 13:0.25 14:0.28125 15:0.25 16:0.4375 17:0.25 18:0.1875 19:0.5 20:0.625 21:0 22:0 23:0 24:0 25:0 26:0.0625 27:0.09375 28:0.0625 29:0 30:0.03125 31:0.4375 32:0.40625 33:0.1875 34:0.5 35:0.40625 36:0.5 37:0.3125 38:0 39:0.5 40:0.59375 41:0 42:0 43:0 44:0 45:0 46:0.09375 47:0.03125 48:0 49:0.09375 50:0 51:0.625 52:0.3125 53:0 54:0.625 55:0.8125 56:0.28125 57:0.09375 58:0 59:0.28125 60:0.0625 61:0.1875 62:0.21875 63:0.1875 64:0.25 65:0.1875 66:0.3125 67:0.4375 68:0.3125 69:0.59375 70:0.53125 71:0.3125 72:0.40625 73:0.25 74:0.4375 75:0.75 76:0.1875 77:0.34375 78:0.28125 79:0.3125 80:0.28125 
0 0.06008932935701668 0 0 0 0 0 0 0.08418768899057184 0 0.1429290315042772 0 0.04230175276025027 1:0 2:0 3:0 4:0 5:0 6:0 7:0 8:0.03125 9:0.03125 10:0 11:0.1875 12:0.0625 13:0.15625 14:0.25 15:0.09375 16:0.40625 17:0.375 18:0.1875 19:0.4375 20:0.46875 21:0.21875 22:0.21875 23:0.21875 24:0.28125 25:0.21875 26:0.0625 27:0.125 28:0.46875 29:0.46875 30:0.5 31:0.34375 32:0.28125 33:0.15625 34:0.34375 35:0.71875 36:0.5 37:0.375 38:0.0625 39:0.5 40:0.28125 41:0 42:0 43:0 44:0 45:0 46:0.21875 47:0.1875 48:0 49:0.21875 50:0 51:0.625 52:0.4375 53:0.09375 54:0.625 55:0.8125 56:0.15625 57:0.0625 58:0.03125 59:0.15625 60:0.0625 61:0 62:0 63:0 64:0 65:0 66:0.40625 67:0.28125 68:0.125 69:0.40625 70:0.28125 71:0.4375 72:0.1875 73:0.09375 74:0.5 75:0.5 76:0 77:0 78:0 79:0 80:0 
0 0 0 0 0 0 0 0 0 0 1 0 0 1:0 2:0 3:0 4:0 5:0 6:0.09375 7:0.0625 8:0 9:0.0625 10:0 11:0.125 12:0.46875 13:0.46875 14:0.375 15:0.375 16:0.375 17:0.25 18:0.25 19:0.46875 20:0.625 21:0 22:0 23:0 24:0 25:0 26:0 27:0 28:0 29:0 30:0 31:0.5 32:0.25 33:0 34:0.5 35:0.375 36:0.5 37:0.25 38:0 39:0.5 40:0.5 41:0 42:0 43:0 44:0 45:0 46:0.25 47:0.125 48:0 49:0.25 50:0.03125 51:0.59375 52:0.375 53:0.09375 54:0.59375 55:0.8125 56:0.15625 57:0.0625 58:0.03125 59:0.15625 60:0.0625 61:0.125 62:0.1875 63:0.1875 64:0.28125 65:0.1875 66:0.34375 67:0.125 68:0.09375 69:0.40625 70:0.5625 71:0.4375 72:0.375 73:0.125 74:0.34375 75:0.65625 76:0.0625 77:0.0625 78:0 79:0.03125 80:0 
0 0.2114893278444538 0 0 0 0 1 0.02664255000806185 0 0 0 0 0 1:0 2:0 3:0 4:0 5:0 6:0.125 7:0.1875 8:0.1875 9:0.28125 10:0.1875 11:0.0625 12:0.1875 13:0.25 14:0.28125 15:0.25 16:0.4375 17:0.25 18:0.1875 19:0.5 20:0.625 21:0 22:0 23:0 24:0 25:0 26:0.125 27:0.25 28:0.1875 29:0.1875 30:0.09375 31:0.40625 32:0.25 33:0.28125 34:0.46875 35:0.65625 36:0.46875 37:0.125 38:0.03125 39:0.46875 40:0.40625 41:0 42:0 43:0 44:0 45:0 46:0.4375 47:0.09375 48:0 49:0.4375 50:0.375 51:0.5625 52:0.15625 53:0 54:0.5625 55:0.5625 56:0 57:0 58:0 59:0 60:0 61:0.3125 62:0.21875 63:0.0625 64:0.25 65:0.125 66:0.46875 67:0.09375 68:0.125 69:0.5625 70:0.65625 71:0.09375 72:0.03125 73:0 74:0.09375 75:0 76:0 77:0 78:0 79:0 80:0 
0 0 0 0 0 0 0 0 0 0 0.3892276095091574 0 0 1:0 2:0 3:0 4:0 5:0 6:0.09375 7:0 8:0.09375 9:0.15625 10:0.09375 11:0.0625 12:0.0625 13:0.25 14:0.25 15:0.40625 16:0.375 17:0.25 18:0.25 19:0.46875 20:0.625 21:0 22:0 23:0 24:0 25:0 26:0.15625 27:0.21875 28:0.125 29:0.15625 30:0.125 31:0.375 32:0.25 33:0.15625 34:0.375 35:0.6875 36:0.5 37:0.25 38:0.0625 39:0.5 40:0.40625 41:0 42:0 43:0 44:0 45:0 46:0.375 47:0.28125 48:0 49:0.375 50:0.125 51:0.59375 52:0.34375 53:0.03125 54:0.59375 55:0.71875 56:0.03125 57:0 58:0.03125 59:0.03125 60:0 61:0.125 62:0.1875 63:0.1875 64:0.28125 65:0.1875 66:0.46875 67:0.15625 68:0.125 69:0.5 70:0.65625 71:0.40625 72:0.21875 73:0.0625 74:0.40625 75:0.28125 76:0 77:0 78:0 79:0 80:0 
0 0 0 0 0 0 0 0 0 0 0 0 0.212821597783494 1:0.125 2:0.1875 3:0.1875 4:0.28125 5:0.1875 6:0 7:0.1875 8:0.25 9:0.25 10:0.25 11:0 12:0.1875 13:0.25 14:0.25 15:0.375 16:0.15625 17:0.21875 18:0.09375 19:0.0625 20:0.15625 21:0.0625 22:0.21875 23:0.1875 24:0.125 25:0.09375 26:0 27:0.25 28:0.25 29:0.25 30:0.125 31:0.46875 32:0.5625 33:0.15625 34:0.53125 35:0.3125 36:0.5 37:0.5 38:0 39:0.5 40:0.5 41:0 42:0 43:0 44:0 45:0 46:0 47:0 48:0 49:0 50:0 51:0.5 52:0.5 53:0 54:0.5 55:0.25 56:0.5 57:0.5 58:0 59:0.5 60:0.5 61:0 62:0 63:0 64:0 65:0 66:0 67:0 68:0 69:0 70:0 71:0.375 72:0.40625 73:0.0625 74:0.3125 75:0.1875 76:0.375 77:0.375 78:0.125 79:0.46875 80:0.375 
0 0 0.01995674391853731 0 0 0 0 0 0 0 0 0 0 1:0 2:0 3:0 4:0 5:0 6:0.125 7:0.0625 8:0.0625 9:0.15625 10:0.0625 11:0.0625 12:0.1875 13:0.25 14:0.28125 15:0.25 16:0.4375 17:0.25 18:0.1875 19:0.5 20:0.625 21:0 22:0 23:0 24:0 25:0 26:0.0625 27:0.09375 28:0.0625 29:0 30:0.03125 31:0.375 32:0.4375 33:0.25 34:0.53125 35:0.28125 36:0.5625 37:0.40625 38:0 39:0.53125 40:0.65625 41:0 42:0 43:0 44:0 45:0 46:0 47:0 48:0 49:0 50:0 51:0.59375 52:0.3125 53:0 54:0.59375 55:0.65625 56:0.40625 57:0.1875 58:0 59:0.40625 60:0.21875 61:0.1875 62:0.21875 63:0.1875 64:0.25 65:0.1875 66:0.25 67:0.3125 68:0.3125 69:0.53125 70:0.46875 71:0.28125 72:0.28125 73:0.21875 74:0.40625 75:0.875 76:0.25 77:0.375 78:0.28125 79:0.375 80:0.28125 
0 0 0 0.01382979298400649 0.4517869414335121 0 0 0.001937937828454356 0 0 0 0 0 1:0 2:0 3:0 4:0 5:0 6:0.03125 7:0 8:0.03125 9:0.03125 10:0 11:0 12:0.1875 13:0.25 14:0.25 15:0.125 16:0.34375 17:0.125 18:0.1875 19:0.46875 20:0.5 21:0 22:0 23:0 24:0 25:0 26:0.25 27:0.21875 28:0.0625 29:0.1875 30:0.125 31:0.40625 32:0.3125 33:0.125 34:0.40625 35:0.5625 36:0.46875 37:0.3125 38:0.0625 39:0.46875 40:0.59375 41:0 42:0 43:0 44:0 45:0 46:0 47:0 48:0 49:0 50:0 51:0.59375 52:0.3125 53:0 54:0.59375 55:0.65625 56:0.40625 57:0.1875 58:0 59:0.40625 60:0.21875 61:0.125 62:0.1875 63:0.1875 64:0.28125 65:0.1875 66:0.1875 67:0.21875 68:0.21875 69:0.375 70:0.28125 71:0.4375 72:0.28125 73:0.03125 74:0.34375 75:0.90625 76:0.125 77:0.3125 78:0.25 79:0.21875 80:0.25 
0 0 0 0.2328283262003378 0 0.04253041956679077 0 0 0 0 0 0 0.3317665981592226 1:0 2:0 3:0 4:0 5:0 6:0 7:0 8:0 9:0 10:0 11:0.0625 12:0.0625 13:0.125 14:0.15625 15:0 16:0.40625 17:0.28125 18:0.1875 19:0.46875 20:0.53125 21:0 22:0 23:0 24:0 25:0 26:0.09375 27:0.0625 28:0 29:0.0625 30:0 31:0.40625 32:0.4375 33:0.3125 34:0.46875 35:0.5625 36:0.5 37:0.3125 38:0 39:0.5 40:0.5625 41:0 42:0 43:0 44:0 45:0 46:0.03125 47:0 48:0 49:0.03125 50:0 51:0.5625 52:0.3125 53:0 54:0.5625 55:0.6875 56:0.40625 57:0.1875 58:0 59:0.40625 60:0.1875 61:0.125 62:0.1875 63:0.1875 64:0.28125 65:0.1875 66:0.21875 67:0.15625 68:0.21875 69:0.34375 70:0.34375 71:0.4375 72:0.3125 73:0.125 74:0.34375 75:0.875 76:0.15625 77:0.28125 78:0.25 79:0.125 80:0.28125 
0 0 0 0.003767938264141061 0.004282002419855375 0 0 0 0 0 0 0 0 1:0 2:0 3:0 4:0 5:0 6:0.03125 7:0 8:0.03125 9:0.03125 10:0 11:0 12:0.1875 13:0.25 14:0.25 15:0.125 16:0.34375 17:0.125 18:0.1875 19:0.46875 20:0.5 21:0 22:0 23:0 24:0 25:0 26:0.25 27:0.21875 28:0.0625 29:0.1875 30:0.125 31:0.40625 32:0.3125 33:0.125 34:0.40625 35:0.5625 36:0.46875 37:0.3125 38:0.0625 39:0.46875 40:0.59375 41:0 42:0 43:0 44:0 45:0 46:0 47:0 48:0 49:0 50:0 51:0.59375 52:0.3125 53:0 54:0.59375 55:0.65625 56:0.40625 57:0.1875 58:0 59:0.40625 60:0.21875 61:0.125 62:0.1875 63:0.1875 64:0.28125 65:0.1875 66:0.1875 67:0.21875 68:0.21875 69:0.375 70:0.28125 71:0.4375 72:0.28125 73:0.03125 74:0.34375 75:0.90625 76:0.125 77:0.3125 78:0.25 79:0.21875 80:0.25 
0 0 0 0 0 0 0.6549940404200147 0 0 0 0 0 0 1:0.0625 2:0.125 3:0.1875 4:0.21875 5:0.09375 6:0 7:0.125 8:0.25 9:0.25 10:0.21875 11:0.125 12:0.15625 13:0.21875 14:0.3125 15:0.28125 16:0.46875 17:0.375 18:0.1875 19:0.5 20:0.53125 21:0.125 22:0.28125 23:0.1875 24:0.1875 25:0.1875 26:0.09375 27:0.1875 28:0.25 29:0.34375 30:0.21875 31:0.5625 32:0.375 33:0.0625 34:0.5 35:0.84375 36:0.28125 37:0.09375 38:0.0625 39:0.28125 40:0.09375 41:0 42:0 43:0 44:0 45:0 46:0.46875 47:0.1875 48:0.0625 49:0.46875 50:0.4375 51:0.53125 52:0.3125 53:0.0625 54:0.53125 55:0.46875 56:0 57:0 58:0 59:0 60:0 61:0.3125 62:0.3125 63:0.28125 64:0.4375 65:0.28125 66:0.53125 67:0.21875 68:0.09375 69:0.59375 70:0.78125 71:0.125 72:0 73:0 74:0.125 75:0.03125 76:0 77:0 78:0 79:0 80:0 
-0.1110454919589798 0.1270823677479525 0 0 0.0384701428798764 0 0.04094465190242405 0.08154807802799147 0.161096513617611 0 0.1120273548577889 0.01364316226022201 0.01813268620523999 1:0 2:0.03125 3:0.0625 4:0.0625 5:0 6:0 7:0.125 8:0.125 9:0.125 10:0 11:0.15625 12:0.03125 13:0.21875 14:0.28125 15:0.15625 16:0.40625 17:0.4375 18:0.1875 19:0.4375 20:0.46875 21:0.1875 22:0.25 23:0.1875 24:0.21875 25:0.1875 26:0 27:0.375 28:0.375 29:0.375 30:0.375 31:0.15625 32:0.3125 33:0.25 34:0.34375 35:0.34375 36:0.6875 37:0.6875 38:0 39:0.65625 40:0.75 41:0 42:0 43:0 44:0 45:0 46:0 47:0 48:0 49:0 50:0 51:0.25 52:0.25 53:0 54:0.25 55:0 56:0.75 57:0.75 58:0 59:0.75 60:0.75 61:0 62:0 63:0 64:0 65:0 66:0 67:0 68:0 69:0 70:0 71:0.21875 72:0.21875 73:0 74:0.1875 75:0 76:0.65625 77:0.6875 78:0.1875 79:0.71875 80:0.65625 
-0.06933633616596746 0.02745204295999342 0.03558840076595373 0.3478554875854775 0.1982352317537742 0.1570522206485558 0 0.07975075274012314 0 0.07558707905271984 0 0.2323815515775698 0 1:0 2:0 3:0 4:0 5:0 6:0 7:0 8:0 9:0 10:0 11:0.3125 12:0.0625 13:0.125 14:0.375 15:0.25 16:0.3125 17:0.28125 18:0.125 19:0.3125 20:0.28125 21:0.28125 22:0.21875 23:0.09375 24:0.21875 25:0.125 26:0.25 27:0.125 28:0.46875 29:0.59375 30:0.5625 31:0.40625 32:0.3125 33:0.125 34:0.40625 35:0.90625 36:0.3125 37:0.21875 38:0 39:0.3125 40:0.0625 41:0 42:0 43:0 44:0 45:0 46:0.34375 47:0.25 48:0 49:0.34375 50:0.09375 51:0.625 52:0.375 53:0 54:0.625 55:0.75 56:0.03125 57:0 58:0 59:0.03125 60:0 61:0 62:0 63:0 64:0 65:0 66:0.4375 67:0.40625 68:0.125 69:0.4375 70:0.375 71:0.4375 72:0.25 73:0.0625 74:0.46875 75:0.34375 76:0 77:0 78:0 79:0 80:0 
-0.1394839125245187 0.2500417867278857 0 0.1435133060801478 0 0.1339314033586247 0.3051550784100565 0.1255361767256487 0.149789716009683 0.06293295779619952 0 0.04550782404113885 0.05609449924242307 1:0.0625 2:0 3:0.125 4:0.125 5:0.03125 6:0.0625 7:0.125 8:0.28125 9:0.28125 10:0.34375 11:0.09375 12:0.3125 13:0.25 14:0.15625 15:0.34375 16:0.0625 17:0.0625 18:0 19:0.03125 20:0 21:0.1875 22:0.28125 23:0.25 24:0.28125 25:0.28125 26:0.125 27:0 28:0.21875 29:0.21875 30:0.1875 31:0.75 32:0.75 33:0.03125 34:0.6875 35:0.75 36:0.25 37:0.25 38:0 39:0.25 40:0 41:0 42:0 43:0 44:0 45:0 46:0 47:0 48:0 49:0 50:0 51:0.75 52:0.75 53:0 54:0.75 55:0.75 56:0.25 57:0.25 58:0 59:0.25 60:0 61:0 62:0 63:0 64:0 65:0 66:0.1875 67:0.0625 68:0.1875 69:0.28125 70:0.21875 71:0.40625 72:0.34375 73:0.1875 74:0.4375 75:0.8125 76:0.28125 77:0.34375 78:0.25 79:0.0625 80:0.4375 
0 0 0.06142978950787294 0 0 0 0.7001026478967869 0.00573007445077747 0 0 1 0 0 1:0.1875 2:0.28125 3:0.25 4:0.28125 5:0.1875 6:0 7:0.5 8:0.5 9:0.5 10:0.375 11:0.15625 12:0.53125 13:0.40625 14:0.3125 15:0.5 16:0.34375 17:0.34375 18:0.09375 19:0.1875 20:0.28125 21:0 22:0 23:0 24:0 25:0 26:0 27:0 28:0 29:0 30:0 31:0.5 32:0.5 33:0 34:0.5 35:0.25 36:0.5 37:0.5 38:0 39:0.5 40:0.5 41:0 42:0 43:0 44:0 45:0 46:0 47:0 48:0 49:0 50:0 51:0.5 52:0.5 53:0 54:0.5 55:0.25 56:0.5 57:0.5 58:0 59:0.5 60:0.5 61:0 62:0 63:0 64:0 65:0 66:0 67:0 68:0 69:0 70:0 71:0.375 72:0.40625 73:0.0625 74:0.3125 75:0.1875 76:0.375 77:0.375 78:0.125 79:0.46875 80:0.375 
-0.03281641227457521 0.2105472024346354 0.01862548705639297 0 0.2087933423983462 0 1 0 0 0.02878325501150865 1 0 0 1:0 2:0 3:0 4:0 5:0 6:0.1875 7:0.15625 8:0.125 9:0.15625 10:0.09375 11:0.1875 12:0.46875 13:0.4375 14:0.5 15:0.5 16:0.34375 17:0.40625 18:0.09375 19:0.25 20:0.34375 21:0 22:0 23:0 24:0 25:0 26:0.09375 27:0.0625 28:0 29:0.09375 30:0 31:0.5625 32:0.21875 33:0 34:0.5625 35:0.75 36:0.34375 37:0.09375 38:0 39:0.34375 40:0.15625 41:0 42:0 43:0 44:0 45:0 46:0.4375 47:0.09375 48:0 49:0.4375 50:0.34375 51:0.5625 52:0.28125 53:0 54:0.5625 55:0.5625 56:0 57:0 58:0 59:0 60:0 61:0.25 62:0.09375 63:0.15625 64:0.34375 65:0.21875 66:0.5625 67:0.1875 68:0.0625 69:0.5625 70:0.78125 71:0.15625 72:0.03125 73:0 74:0.15625 75:0.03125 76:0 77:0 78:0 79:0 80:0 
-0.2873412687544417 0.2877754804204232 0.2394219744289275 0.3516917452003862 0.3046314153183736 0.3216517083387819 0.06328499213332704 0.2632405714903573 0.2742633629969188 0.2755898010174221 1 0.2470271741863158 0.3571569192746929 1:0.1875 2:0.28125 3:0.25 4:0.28125 5:0.1875 6:0 7:0.5 8:0.5 9:0.5 10:0.375 11:0.09375 12:0.53125 13:0.46875 14:0.40625 15:0.40625 16:0.40625 17:0.46875 18:0.15625 19:0.21875 20:0.46875 21:0 22:0 23:0 24:0 25:0 26:0 27:0 28:0 29:0 30:0 31:0.25 32:0.25 33:0 34:0.25 35:0 36:0.75 37:0.75 38:0 39:0.75 40:0.75 41:0 42:0 43:0 44:0 45:0 46:0 47:0 48:0 49:0 50:0 51:0.25 52:0.25 53:0 54:0.25 55:0 56:0.75 57:0.75 58:0 59:0.75 60:0.75 61:0 62:0 63:0 64:0 65:0 66:0 67:0 68:0 69:0 70:0 71:0.21875 72:0.21875 73:0 74:0.1875 75:0 76:0.65625 77:0.6875 78:0.1875 79:0.71875 80:0.65625 
0 0 0.8705999528889212 0.08952573673989983 0 0 0 0 0 0 0 0 0 1:0 2:0 3:0 4:0 5:0 6:0.125 7:0.125 8:0.125 9:0.21875 10:0.125 11:0 12:0.0625 13:0.25 14:0.25 15:0.34375 16:0.40625 17:0.25 18:0.21875 19:0.46875 20:0.625 21:0 22:0 23:0 24:0 25:0 26:0.0625 27:0.15625 28:0.125 29:0.0625 30:0.0625 31:0.40625 32:0.40625 33:0.15625 34:0.5625 35:0.34375 36:0.5 37:0.375 38:0 39:0.5 40:0.59375 41:0 42:0 43:0 44:0 45:0 46:0 47:0 48:0 49:0 50:0 51:0.5625 52:0.40625 53:0 54:0.5625 55:0.625 56:0.4375 57:0.21875 58:0 59:0.4375 60:0.21875 61:0.1875 62:0.21875 63:0.1875 64:0.25 65:0.1875 66:0.125 67:0.375 68:0.375 69:0.46875 70:0.375 71:0.40625 72:0.34375 73:0.1875 74:0.46875 75:0.90625 76:0.1875 77:0.4375 78:0.375 79:0.4375 80:0.375 
0 0.133351631124665 0.1280545878461208 0 0.03127715209170114 0 0 0.06079233079723496 0.04832702145236057 0 0 0 0 1:0.125 2:0.0625 3:0.1875 4:0.28125 5:0.21875 6:0.1875 7:0.21875 8:0.3125 9:0.40625 10:0.46875 11:0.375 12:0.46875 13:0.125 14:0.375 15:0.375 16:0 17:0 18:0 19:0 20:0 21:0.0625 22:0.21875 23:0.1875 24:0.125 25:0.09375 26:0.5 27:0.5 28:0.125 29:0.53125 30:0.28125 31:0.5 32:0.5 33:0 34:0.5 35:0.5 36:0 37:0 38:0 39:0 40:0 41:0 42:0 43:0 44:0 45:0 46:0.5 47:0.5 48:0 49:0.5 50:0.25 51:0.5 52:0.5 53:0 54:0.5 55:0.5 56:0 57:0 58:0 59:0 60:0 61:0.1875 62:0.3125 63:0.28125 64:0.34375 65:0.28125 66:0.3125 67:0.5 68:0.3125 69:0.59375 70:0.53125 71:0.3125 72:0.53125 73:0.25 74:0.4375 75:0.6875 76:0 77:0.375 78:0.375 79:0.375 80:0.375 
0 0 0 0.1290168254733089 0.08742294379209596 0 0 0 0 0 0 0 0 1:0.09375 2:0 3:0.03125 4:0.09375 5:0.03125 6:0.15625 7:0.0625 8:0.28125 9:0.28125 10:0.40625 11:0.34375 12:0.34375 13:0.28125 14:0.40625 15:0.65625 16:0.1875 17:0.1875 18:0 19:0.15625 20:0 21:0.125 22:0.15625 23:0.0625 24:0.0625 25:0.0625 26:0.09375 27:0.0625 28:0.21875 29:0.21875 30:0.15625 31:0.75 32:0.75 33:0 34:0.71875 35:0.75 36:0.25 37:0.25 38:0 39:0.25 40:0 41:0 42:0 43:0 44:0 45:0 46:0 47:0 48:0 49:0 50:0 51:0.75 52:0.75 53:0 54:0.75 55:0.75 56:0.25 57:0.25 58:0 59:0.25 60:0 61:0.0625 62:0.03125 63:0 64:0.0625 65:0 66:0.0625 67:0.21875 68:0.25 69:0.28125 70:0.25 71:0.53125 72:0.46875 73:0.0625 74:0.53125 75:0.8125 76:0.1875 77:0.375 78:0.21875 79:0.25 80:0.28125 
0 0 0.01331760018422371 0 0 0 0 0 0 0 0 0 0 1:0.125 2:0.0625 3:0.125 4:0.21875 5:0.125 6:0.09375 7:0.125 8:0.34375 9:0.34375 10:0.4375 11:0.0625 12:0.46875 13:0.4375 14:0.375 15:0.40625 16:0.21875 17:0.28125 18:0.09375 19:0.125 20:0.21875 21:0.0625 22:0.15625 23:0.125 24:0.0625 25:0.0625 26:0.03125 27:0.0625 28:0.15625 29:0.15625 30:0.0625 31:0.5 32:0.5 33:0 34:0.5 35:0.25 36:0.5 37:0.5 38:0 39:0.5 40:0.5 41:0 42:0 43:0 44:0 45:0 46:0 47:0 48:0 49:0 50:0 51:0.5 52:0.5 53:0 54:0.5 55:0.25 56:0.5 57:0.5 58:0 59:0.5 60:0.5 61:0 62:0 63:0 64:0 65:0 66:0 67:0 68:0 69:0 70:0 71:0.375 72:0.40625 73:0.0625 74:0.3125 75:0.1875 76:0.375 77:0.375 78:0.125 79:0.46875 80:0.375 
0 0 0 0 0.1813709504131297 0 0 0 0 0.3488916508727098 0 0.3954021915209368 0 1:0.09375 2:0 3:0.09375 4:0.15625 5:0.09375 6:0.09375 7:0.21875 8:0.25 9:0.3125 10:0.25 11:0.40625 12:0.375 13:0.1875 14:0.4375 15:0.46875 16:0 17:0 18:0 19:0 20:0 21:0.125 22:0.21875 23:0.125 24:0.125 25:0.125 26:0.4375 27:0.46875 28:0.1875 29:0.5 30:0.375 31:0.5 32:0.4375 33:0 34:0.5 35:0.5 36:0 37:0 38:0 39:0 40:0 41:0 42:0 43:0 44:0 45:0 46:0.5 47:0.5 48:0 49:0.5 50:0.25 51:0.5 52:0.5 53:0 54:0.5 55:0.5 56:0 57:0 58:0 59:0 60:0 61:0.125 62:0.1875 63:0.1875 64:0.28125 65:0.1875 66:0.375 67:0.1875 68:0.1875 69:0.4375 70:0.53125 71:0.3125 72:0.375 73:0.25 74:0.1875 75:0.71875 76:0.0625 77:0.25 78:0.25 79:0.125 80:0.28125 
-0.09096329297059563 0.1110999416133899 0.2996659801255576 0.2573681253162538 0.4683815439612363 0.1595126201640864 0 0.2006502801804752 0.149183352755179 0.06007081557762796 0 0.06468310135621293 0.1181120018473422 1:0 2:0 3:0 4:0 5:0 6:0 7:0 8:0 9:0 10:0 11:0.21875 12:0.0625 13:0.15625 14:0.3125 15:0.15625 16:0.25 17:0.34375 18:0.125 19:0.25 20:0.25 21:0.28125 22:0.21875 23:0.09375 24:0.21875 25:0.125 26:0.125 27:0.25 28:0.5 29:0.5625 30:0.5 31:0.25 32:0.34375 33:0.1875 34:0.3125 35:0.75 36:0.5 37:0.375 38:0 39:0.5 40:0.28125 41:0 42:0 43:0 44:0 45:0 46:0 47:0 48:0 49:0 50:0 51:0.5 52:0.5 53:0 54:0.5 55:0.5 56:0.5 57:0.5 58:0 59:0.5 60:0.25 61:0 62:0 63:0 64:0 65:0 66:0 67:0 68:0 69:0 70:0 71:0.3125 72:0.40625 73:0.125 74:0.3125 75:0.3125 76:0.3125 77:0.25 78:0.0625 79:0.34375 80:0.15625 
-0.1871441243097086 0.2170980483476109 0.1436986199974337 0.1212707386226678 0.1456105285542111 0.1951777964713123 0.6573586901451696 0.09274985905283652 0.1161459734619941 0.2932766950426399 0 0.1542001761175215 0.04338244282767752 1:0.09375 2:0 3:0.03125 4:0.09375 5:0.03125 6:0 7:0.125 8:0.25 9:0.25 10:0.25 11:0.0625 12:0.0625 13:0.25 14:0.25 15:0.46875 16:0.21875 17:0.1875 18:0.34375 19:0.46875 20:0.5625 21:0.125 22:0.15625 23:0.0625 24:0.0625 25:0.0625 26:0 27:0.125 28:0.25 29:0.25 30:0.1875 31:0.5 32:0.46875 33:0.09375 34:0.625 35:0.71875 36:0.375 37:0.21875 38:0.0625 39:0.375 40:0.21875 41:0 42:0 43:0 44:0 45:0 46:0.40625 47:0.125 48:0.15625 49:0.40625 50:0.28125 51:0.5 52:0.1875 53:0.09375 54:0.5 55:0.6875 56:0.09375 57:0.0625 58:0 59:0.09375 60:0 61:0.25 62:0.21875 63:0 64:0.21875 65:0 66:0.65625 67:0.5 68:0.125 69:0.65625 70:0.8125 71:0.09375 72:0 73:0.09375 74:0.09375 75:0.03125 76:0 77:0 78:0 79:0 80:0 
0 0 0.5753864705202304 0 0 0 0 0 0.05517492595295657 0 0.3291348180112455 0 0.0710701328946716 1:0.09375 2:0 3:0.03125 4:0.09375 5:0.03125 6:0.15625 7:0.0625 8:0.28125 9:0.28125 10:0.40625 11:0.0625 12:0.34375 13:0.375 14:0.25 15:0.4375 16:0.21875 17:0.21875 18:0.03125 19:0.125 20:0.09375 21:0.125 22:0.15625 23:0.0625 24:0.0625 25:0.0625 26:0.09375 27:0.0625 28:0.21875 29:0.21875 30:0.15625 31:0.5 32:0.5 33:0 34:0.5 35:0.5 36:0.5 37:0.5 38:0 39:0.5 40:0.25 41:0 42:0 43:0 44:0 45:0 46:0 47:0 48:0 49:0 50:0 51:0.5 52:0.5 53:0 54:0.5 55:0.5 56:0.5 57:0.5 58:0 59:0.5 60:0.25 61:0 62:0 63:0 64:0 65:0 66:0.125 67:0.125 68:0.125 69:0.21875 70:0.125 71:0.34375 72:0.25 73:0.125 74:0.4375 75:0.65625 76:0.34375 77:0.4375 78:0.1875 79:0.1875 80:0.53125 
0 0 0 0 0 0 0 0 0 0 0.7267808225987306 0 0 1:0 2:0 3:0 4:0 5:0 6:0.1875 7:0.28125 8:0.25 9:0.28125 10:0.1875 11:0.125 12:0.28125 13:0.4375 14:0.375 15:0.5 16:0.34375 17:0.46875 18:0.15625 19:0.3125 20:0.53125 21:0 22:0 23:0 24:0 25:0 26:0 27:0 28:0 29:0 30:0 31:0.5 32:0.375 33:0.0625 34:0.5 35:0.28125 36:0.5 37:0.375 38:0 39:0.5 40:0.53125 41:0 42:0 43:0 44:0 45:0 46:0 47:0 48:0 49:0 50:0 51:0.6875 52:0.59375 53:0 54:0.6875 55:0.75 56:0.3125 57:0.15625 58:0.0625 59:0.3125 60:0.09375 61:0.125 62:0.1875 63:0.1875 64:0.28125 65:0.1875 66:0.28125 67:0.25 68:0.21875 69:0.4375 70:0.375 71:0.34375 72:0.1875 73:0.1875 74:0.28125 75:0.84375 76:0.09375 77:0.3125 78:0.25 79:0.34375 80:0.25 
-0.1524300112777923 0 0.04454152016706938 0.06301013988383795 0.1128835366834827 0.1086446753535954 0.6809328240505732 0.08484031647331887 0.1363612361283247 0.1408078901006056 0.1323830800295222 0.02082628776354376 0.2372951484669601 1:0.1875 2:0.40625 3:0.375 4:0.40625 5:0.28125 6:0.125 7:0.28125 8:0.4375 9:0.375 10:0.5625 11:0.34375 12:0.40625 13:0.09375 14:0.25 15:0.34375 16:0 17:0 18:0 19:0 20:0 21:0 22:0 23:0 24:0 25:0 26:0.5 27:0.5 28:0 29:0.5 30:0.25 31:0.5 32:0.5 33:0 34:0.5 35:0.5 36:0 37:0 38:0 39:0 40:0 41:0 42:0 43:0 44:0 45:0 46:0.5 47:0.5 48:0 49:0.5 50:0.25 51:0.5 52:0.5 53:0 54:0.5 55:0.5 56:0 57:0 58:0 59:0 60:0 61:0.125 62:0.1875 63:0.1875 64:0.28125 65:0.1875 66:0.375 67:0.4375 68:0.1875 69:0.53125 70:0.4375 71:0.34375 72:0.40625 73:0.09375 74:0.25 75:0.65625 76:0 77:0.25 78:0.25 79:0.25 80:0.25 
-0.1260654097436001 0.205441719325044 0.123189656804046 0.5071259309204181 0.1337197006135904 0.2583904711707573 0 0.1930509297607379 0 0.003942797463271606 0.7985647312519411 0.03821972351709197 0.3473208486645285 1:0 2:0 3:0 4:0 5:0 6:0 7:0 8:0 9:0 10:0 11:0.15625 12:0 13:0.21875 14:0.25 15:0.15625 16:0.4375 17:0.25 18:0.1875 19:0.5 20:0.625 21:0 22:0 23:0 24:0 25:0 26:0.09375 27:0.0625 28:0 29:0.0625 30:0 31:0.40625 32:0.21875 33:0.125 34:0.21875 35:0.6875 36:0.5 37:0.3125 38:0 39:0.5 40:0.59375 41:0 42:0 43:0 44:0 45:0 46:0.15625 47:0.09375 48:0 49:0.15625 50:0 51:0.625 52:0.3125 53:0 54:0.625 55:0.8125 56:0.21875 57:0.03125 58:0 59:0.21875 60:0.0625 61:0.1875 62:0.21875 63:0.1875 64:0.25 65:0.1875 66:0.3125 67:0.25 68:0.25 69:0.53125 70:0.625 71:0.375 72:0.375 73:0.28125 74:0.4375 75:0.71875 76:0.09375 77:0.0625 78:0 79:0.0625 80:0 
-0.1980016863294037 0.1708783181503784 0.166236634276519 0.2897276737029777 0.2632407246165668 0.2075227891613306 0.06991443120607267 0.1551479419636306 0.1924189496900514 0.02372642012714063 0.01351512592197916 0.0423382956082636 0.1190753941413818 1:0 2:0.03125 3:0.0625 4:0.0625 5:0 6:0.1875 7:0.0625 8:0.15625 9:0.25 10:0.09375 11:0.40625 12:0.4375 13:0.1875 14:0.4375 15:0.46875 16:0 17:0 18:0 19:0 20:0 21:0.1875 22:0.25 23:0.1875 24:0.21875 25:0.1875 26:0.15625 27:0.40625 28:0.3125 29:0.375 30:0.375 31:0.65625 32:0.65625 33:0 34:0.625 35:0.75 36:0 37:0 38:0 39:0 40:0 41:0 42:0 43:0 44:0 45:0 46:0.25 47:0.25 48:0 49:0.25 50:0 51:0.75 52:0.75 53:0 54:0.75 55:0.75 56:0 57:0 58:0 59:0 60:0 61:0.1875 62:0.28125 63:0.25 64:0.28125 65:0.1875 66:0.125 67:0.53125 68:0.5 69:0.59375 70:0.375 71:0.375 72:0.625 73:0.3125 74:0.5625 75:0.75 76:0.09375 77:0.46875 78:0.5 79:0.46875 80:0.375 
0 0 0 0 0 0 0 0 0.03454896461037212 0 0 0 0 1:0.09375 2:0 3:0.03125 4:0.09375 5:0.03125 6:0.25 7:0.0625 8:0.1875 9:0.375 10:0.5 11:0.125 12:0.4375 13:0.5 14:0.40625 15:0.40625 16:0.25 17:0.3125 18:0.25 19:0.03125 20:0.4375 21:0.3125 22:0.34375 23:0.0625 24:0.25 25:0.15625 26:0.3125 27:0.1875 28:0.1875 29:0.40625 30:0.34375 31:0.03125 32:0 33:0.03125 34:0.03125 35:0 36:0.71875 37:0.625 38:0.03125 39:0.65625 40:0.78125 41:0 42:0 43:0 44:0 45:0 46:0.09375 47:0 48:0.09375 49:0.09375 50:0.03125 51:0.46875 52:0 53:0.03125 54:0.46875 55:0.625 56:0.40625 57:0 58:0.0625 59:0.40625 60:0.40625 61:0.125 62:0.09375 63:0 64:0.09375 65:0 66:0.40625 67:0.25 68:0.1875 69:0.375 70:0.84375 71:0.25 72:0.375 73:0.5625 74:0.53125 75:0.5625 76:0 77:0.375 78:0.375 79:0.375 80:0.375 
-0.08255734220031992 -0.2032300698851018 0 0.0356065066131773 0.0787741288358306 0.02951265520417062 0 0 0 0.03112155369018272 0.06330352626453807 0.02076000445722129 0.2916487709884155 1:0 2:0 3:0 4:0 5:0 6:0.125 7:0 8:0.0625 9:0.125 10:0.03125 11:0.28125 12:0 13:0.28125 14:0.4375 15:0.5 16:0.34375 17:0.46875 18:0.25 19:0.125 20:0.5625 21:0 22:0 23:0 24:0 25:0 26:0.25 27:0.28125 28:0.125 29:0.25 30:0.25 31:0.4375 32:0.0625 33:0.1875 34:0.46875 35:0.25 36:0.65625 37:0.4375 38:0 39:0.65625 40:0.8125 41:0 42:0 43:0 44:0 45:0 46:0.25 47:0 48:0.0625 49:0.25 50:0.125 51:0.46875 52:0 53:0.09375 54:0.46875 55:0.71875 56:0.28125 57:0 58:0.09375 59:0.28125 60:0.21875 61:0.3125 62:0.09375 63:0.1875 64:0.40625 65:0.40625 66:0.21875 67:0.21875 68:0.40625 69:0.34375 70:0.875 71:0.25 72:0.375 73:0.46875 74:0.5 75:0.46875 76:0.09375 77:0.0625 78:0 79:0.0625 80:0 
0 0 0.9073670805359867 0 0 0 0 0.2360638518939411 0 0 0 0 0 1:0 2:0 3:0 4:0 5:0 6:0.28125 7:0.0625 8:0.09375 9:0.28125 10:0.21875 11:0.21875 12:0.125 13:0.40625 14:0.46875 15:0.53125 16:0.375 17:0.59375 18:0.28125 19:0.375 20:0.625 21:0 22:0 23:0 24:0 25:0 26:0.3125 27:0.28125 28:0.1875 29:0.34375 30:0.375 31:0.34375 32:0.09375 33:0.0625 34:0.34375 35:0.09375 36:0.65625 37:0.4375 38:0 39:0.65625 40:0.8125 41:0 42:0 43:0 44:0 45:0 46:0.15625 47:0 48:0.15625 49:0.28125 50:0.25 51:0.375 52:0.09375 53:0.125 54:0.375 55:0.78125 56:0.4375 57:0.21875 58:0.1875 59:0.34375 60:0.34375 61:0.4375 62:0.3125 63:0.15625 64:0.34375 65:0.375 66:0.25 67:0.3125 68:0.4375 69:0.4375 70:0.8125 71:0.375 72:0.28125 73:0.3125 74:0.59375 75:0.59375 76:0.46875 77:0.25 78:0.03125 79:0.46875 80:0.375 
-0.4330152268830784 -0.4862741722500993 1 0.7287094799776649 0.6365052322584589 0.5413158690298516 0.2603212672040283 0.9035307551378183 0.4305094923174025 0.2946891187966299 0.3094646212344963 0.2592724091587228 0.1231358749596202 1:0 2:0 3:0 4:0 5:0 6:0.21875 7:0 8:0.03125 9:0.21875 10:0.125 11:0.0625 12:0.125 13:0.375 14:0.40625 15:0.5 16:0.25 17:0.40625 18:0.28125 19:0.125 20:0.5 21:0 22:0 23:0 24:0 25:0 26:0.4375 27:0.53125 28:0.125 29:0.4375 30:0.4375 31:0.625 32:0.3125 33:0.0625 34:0.65625 35:0.375 36:0.59375 37:0.25 38:0 39:0.59375 40:0.78125 41:0 42:0 43:0 44:0 45:0 46:0.3125 47:0 48:0.125 49:0.3125 50:0.21875 51:0.5 52:0.0625 53:0 54:0.46875 55:0.75 56:0.46875 57:0.34375 58:0.21875 59:0.46875 60:0.375 61:0.375 62:0.28125 63:0.0625 64:0.28125 65:0.15625 66:0.15625 67:0.375 68:0.46875 69:0.34375 70:0.78125 71:0.28125 72:0.34375 73:0.5 74:0.65625 75:0.5625 76:0.40625 77:0.125 78:0.09375 79:0.40625 80:0.40625 
-0.1083742869378412 0 0.4066010824039155 0 0 0 0 0.320362087502981 0 0 0 0 0 1:0.21875 2:0.0625 3:0.09375 4:0.28125 5:0.21875 6:0.0625 7:0.125 8:0.4375 9:0.46875 10:0.46875 11:0.15625 12:0.40625 13:0.40625 14:0.125 15:0.5 16:0.21875 17:0.21875 18:0.09375 19:0.0625 20:0.15625 21:0.375 22:0.40625 23:0.125 24:0.25 25:0.46875 26:0.375 27:0.3125 28:0.0625 29:0.40625 30:0.1875 31:0.5 32:0.3125 33:0 34:0.4375 35:0.3125 36:0.5 37:0.4375 38:0 39:0.5 40:0.5 41:0.03125 42:0 43:0.09375 44:0.09375 45:0.03125 46:0.3125 47:0 48:0.125 49:0.375 50:0.40625 51:0.4375 52:0 53:0.1875 54:0.4375 55:0.625 56:0.34375 57:0.21875 58:0.21875 59:0.40625 60:0.25 61:0.40625 62:0.34375 63:0.09375 64:0.25 65:0.34375 66:0.15625 67:0.40625 68:0.53125 69:0.4375 70:0.6875 71:0.03125 72:0.4375 73:0.53125 74:0.53125 75:0.375 76:0.46875 77:0.3125 78:0.25 79:0.59375 80:0.6875 
-0.2170819203608767 -0.08763972213034955 0.549233374772226 0.3063693834604646 0.3448643871414032 0.3501217260711503 0 0.5367948362198164 0.275069465586554 0.136008455596345 0.05238682186468815 0.1002856134832013 0.137024747577338 1:0.28125 2:0.0625 3:0.03125 4:0.28125 5:0.1875 6:0.125 7:0.25 8:0.375 9:0.46875 10:0.5 11:0.15625 12:0.40625 13:0.34375 14:0.125 15:0.5 16:0.21875 17:0.21875 18:0.03125 19:0 20:0.125 21:0.375 22:0.40625 23:0.0625 24:0.1875 25:0.3125 26:0.375 27:0.3125 28:0.125 29:0.34375 30:0.3125 31:0.5 32:0.25 33:0 34:0.375 35:0.4375 36:0.5 37:0.375 38:0 39:0.5 40:0.4375 41:0.03125 42:0 43:0.03125 44:0.03125 45:0 46:0.375 47:0 48:0.125 49:0.375 50:0.40625 51:0.53125 52:0.03125 53:0.09375 54:0.53125 55:0.625 56:0.3125 57:0.25 58:0.1875 59:0.34375 60:0.21875 61:0.40625 62:0.28125 63:0.15625 64:0.25 65:0.3125 66:0.21875 67:0.40625 68:0.46875 69:0.40625 70:0.71875 71:0.15625 72:0.53125 73:0.53125 74:0.625 75:0.375 76:0.53125 77:0.46875 78:0.15625 79:0.65625 80:0.625 
-0.3972132431577641 -0.5432121643519445 0.3330032426204236 0.4436113714989761 0.5979049646642697 0.4800419065385673 0.4355667143041386 0.6072496674465227 0.4917016263106971 0.4534738115681885 0.3436463020923739 0.361687068067556 0.2425180975299859 1:0 2:0 3:0 4:0 5:0 6:0.375 7:0.0625 8:0.09375 9:0.4375 10:0.4375 11:0.15625 12:0.375 13:0.4375 14:0.5 15:0.4375 16:0.375 17:0.5 18:0.25 19:0.21875 20:0.59375 21:0.25 22:0.21875 23:0 24:0.21875 25:0 26:0.6875 27:0.53125 28:0.09375 29:0.6875 30:0.8125 31:0.15625 32:0.0625 33:0 34:0.15625 35:0 36:0.6875 37:0.46875 38:0 39:0.6875 40:0.8125 41:0 42:0 43:0 44:0 45:0 46:0.15625 47:0.0625 48:0.25 49:0.21875 50:0.09375 51:0.4375 52:0 53:0.1875 54:0.4375 55:0.625 56:0.40625 57:0.125 58:0.125 59:0.46875 60:0.375 61:0.375 62:0.1875 63:0.21875 64:0.4375 65:0.34375 66:0.28125 67:0.21875 68:0.28125 69:0.34375 70:0.90625 71:0.25 72:0.34375 73:0.53125 74:0.59375 75:0.46875 76:0.5625 77:0.25 78:0.1875 79:0.625 80:0.78125 
-0.02179511930456111 0 0.1561301680446328 0 0 0 0 0 0.9996387267590696 0 0 0 0 1:0.21875 2:0 3:0.03125 4:0.21875 5:0.125 6:0.0625 7:0.0625 8:0.375 9:0.40625 10:0.5 11:0.09375 12:0.40625 13:0.40625 14:0.25 15:0.46875 16:0.28125 17:0.28125 18:0.09375 19:0 20:0.25 21:0.46875 22:0.375 23:0.1875 24:0.5 25:0.53125 26:0.28125 27:0.03125 28:0 29:0.28125 30:0.125 31:0.34375 32:0.1875 33:0.0625 34:0.25 35:0.125 36:0.65625 37:0.5625 38:0 39:0.625 40:0.75 41:0 42:0 43:0 44:0 45:0 46:0.3125 47:0.125 48:0.15625 49:0.375 50:0.375 51:0.34375 52:0 53:0.25 54:0.5 55:0.625 56:0.4375 57:0.15625 58:0.25 59:0.5 60:0.3125 61:0.1875 62:0.28125 63:0.25 64:0.28125 65:0.1875 66:0.25 67:0.3125 68:0.3125 69:0.5 70:0.625 71:0.125 72:0.40625 73:0.5 74:0.46875 75:0.40625 76:0.25 77:0.03125 78:0.25 79:0.3125 80:0.4375 
-0.5452147535866916 -0.5110587214768917 0.3017239042319236 0.3969268444333336 0.4932415112516075 0.4490035630399437 0.4364336234817355 0.4877391616434635 0.6668729127089391 0.3540681151112357 0.3506053664088175 0.3083624832847473 0.2621222199482409 1:0.28125 2:0.0625 3:0.09375 4:0.28125 5:0.21875 6:0.21875 7:0.125 8:0.40625 9:0.46875 10:0.53125 11:0.09375 12:0.53125 13:0.46875 14:0.375 15:0.40625 16:0.34375 17:0.40625 18:0.15625 19:0.03125 20:0.53125 21:0.6875 22:0.59375 23:0.09375 24:0.65625 25:0.75 26:0.3125 27:0.1875 28:0 29:0.3125 30:0.0625 31:0.03125 32:0 33:0.03125 34:0.03125 35:0 36:0.71875 37:0.625 38:0.03125 39:0.65625 40:0.78125 41:0 42:0.0625 43:0.09375 44:0.0625 45:0 46:0.1875 47:0 48:0.125 49:0.1875 50:0.09375 51:0.46875 52:0 53:0.15625 54:0.46875 55:0.65625 56:0.375 57:0.0625 58:0.28125 59:0.46875 60:0.4375 61:0.15625 62:0.125 63:0 64:0.125 65:0 66:0.3125 67:0.40625 68:0.34375 69:0.34375 70:0.78125 71:0.15625 72:0.5 73:0.65625 74:0.625 75:0.46875 76:0.28125 77:0.25 78:0.34375 79:0.53125 80:0.625 
0 0 0.2144834200234264 0 0 0 0 0 0 0 0 0 0 1:0 2:0 3:0 4:0 5:0 6:0.28125 7:0.0625 8:0.09375 9:0.28125 10:0.21875 11:0.21875 12:0.125 13:0.40625 14:0.46875 15:0.53125 16:0.375 17:0.59375 18:0.28125 19:0.375 20:0.625 21:0 22:0 23:0 24:0 25:0 26:0.3125 27:0.28125 28:0.1875 29:0.34375 30:0.375 31:0.34375 32:0.09375 33:0.0625 34:0.34375 35:0.09375 36:0.65625 37:0.4375 38:0 39:0.65625 40:0.8125 41:0 42:0 43:0 44:0 45:0 46:0.15625 47:0 48:0.15625 49:0.28125 50:0.25 51:0.375 52:0.09375 53:0.125 54:0.375 55:0.78125 56:0.4375 57:0.21875 58:0.1875 59:0.34375 60:0.34375 61:0.4375 62:0.3125 63:0.15625 64:0.34375 65:0.375 66:0.25 67:0.3125 68:0.4375 69:0.4375 70:0.8125 71:0.375 72:0.28125 73:0.3125 74:0.59375 75:0.59375 76:0.46875 77:0.25 78:0.03125 79:0.46875 80:0.375 
0 -0.6117801757919903 0 0.05277747627860225 0 0 0 0 0 0 0.1416655189298275 0 0 1:0 2:0 3:0 4:0 5:0 6:0.21875 7:0.125 8:0.03125 9:0.21875 10:0.09375 11:0.28125 12:0.0625 13:0.34375 14:0.40625 15:0.5625 16:0.34375 17:0.5625 18:0.25 19:0.34375 20:0.625 21:0 22:0 23:0 24:0 25:0 26:0.1875 27:0.21875 28:0.0625 29:0.125 30:0.09375 31:0.3125 32:0.25 33:0.125 34:0.40625 35:0.1875 36:0.6875 37:0.46875 38:0 39:0.6875 40:0.8125 41:0 42:0 43:0 44:0 45:0 46:0.1875 47:0 48:0 49:0.1875 50:0.0625 51:0.5 52:0 53:0.125 54:0.5 55:0.71875 56:0.3125 57:0.0625 58:0.125 59:0.3125 60:0.28125 61:0.15625 62:0.125 63:0 64:0.125 65:0 66:0.375 67:0.3125 68:0.3125 69:0.34375 70:0.84375 71:0.3125 72:0.21875 73:0.4375 74:0.5625 75:0.65625 76:0.34375 77:0.28125 78:0.21875 79:0.34375 80:0.28125 
0 -0.6628687283710688 0.2076323783713037 0 0 0 0 0 0 0 0.6950437166344188 0 0.06468582976125277 1:0.28125 2:0.0625 3:0.03125 4:0.28125 5:0.1875 6:0.21875 7:0.15625 8:0.34375 9:0.4375 10:0.5625 11:0.09375 12:0.46875 13:0.40625 14:0.0625 15:0.53125 16:0.28125 17:0.28125 18:0.09375 19:0.125 20:0.21875 21:0.125 22:0.21875 23:0.125 24:0.125 25:0.125 26:0.125 27:0 28:0.0625 29:0.15625 30:0.0625 31:0.5 32:0.375 33:0 34:0.5 35:0.3125 36:0.5 37:0.4375 38:0 39:0.5 40:0.5 41:0 42:0 43:0 44:0 45:0 46:0.21875 47:0 48:0.03125 49:0.21875 50:0.125 51:0.5 52:0.09375 53:0.09375 54:0.5 55:0.75 56:0.28125 57:0.09375 58:0 59:0.28125 60:0.09375 61:0.1875 62:0.0625 63:0.1875 64:0.28125 65:0.21875 66:0.34375 67:0.15625 68:0.125 69:0.40625 70:0.84375 71:0.3125 72:0.3125 73:0.375 74:0.5625 75:0.5 76:0.34375 77:0.3125 78:0.28125 79:0.4375 80:0.4375 
0 0 0 0 0 0 0.09915757574659419 0 0.07486627748071176 0.007301957034846137 0 0 0 1:0.21875 2:0.0625 3:0.09375 4:0.21875 5:0.15625 6:0.15625 7:0.125 8:0.40625 9:0.40625 10:0.5 11:0.09375 12:0.46875 13:0.40625 14:0.25 15:0.46875 16:0.28125 17:0.28125 18:0.09375 19:0.125 20:0.21875 21:0.4375 22:0.53125 23:0.125 24:0.4375 25:0.4375 26:0.4375 27:0.3125 28:0.0625 29:0.46875 30:0.21875 31:0.5 32:0.375 33:0.0625 34:0.5 35:0.28125 36:0.5 37:0.5 38:0 39:0.5 40:0.5 41:0 42:0 43:0 44:0 45:0 46:0.28125 47:0 48:0.09375 49:0.28125 50:0.25 51:0.5 52:0.09375 53:0.15625 54:0.5 55:0.71875 56:0.21875 57:0.03125 58:0.0625 59:0.21875 60:0.09375 61:0.15625 62:0.125 63:0 64:0.125 65:0 66:0.34375 67:0.40625 68:0.25 69:0.375 70:0.78125 71:0.125 72:0.5 73:0.5 74:0.59375 75:0.40625 76:0.09375 77:0.46875 78:0.5 79:0.46875 80:0.375 
0 0 0 0 0 0 0 0 0 0 0.003868238756054249 0 0 1:0.28125 2:0.0625 3:0.15625 4:0.28125 5:0.28125 6:0.21875 7:0.125 8:0.46875 9:0.46875 10:0.53125 11:0.125 12:0.53125 13:0.4375 14:0.1875 15:0.5 16:0.28125 17:0.34375 18:0.09375 19:0.1875 20:0.28125 21:0.1875 22:0.21875 23:0.1875 24:0.21875 25:0.1875 26:0.0625 27:0 28:0 29:0.0625 30:0 31:0.5 32:0.375 33:0 34:0.5 35:0.28125 36:0.5 37:0.5 38:0 39:0.5 40:0.5 41:0 42:0 43:0 44:0 45:0 46:0.25 47:0.0625 48:0 49:0.25 50:0.09375 51:0.46875 52:0.0625 53:0.09375 54:0.46875 55:0.71875 56:0.28125 57:0.0625 58:0.03125 59:0.28125 60:0.15625 61:0.1875 62:0.0625 63:0.1875 64:0.28125 65:0.21875 66:0.34375 67:0.15625 68:0.1875 69:0.40625 70:0.84375 71:0.25 72:0.4375 73:0.4375 74:0.53125 75:0.53125 76:0.21875 77:0.125 78:0.375 79:0.46875 80:0.5625 
-0.1070959636619448 -0.1026246511668107 0.0755045073477091 0.1525522430761479 0.1339930689894887 0.1326957101214492 0 0.1292395837055269 0.150415268620189 0.110980277685325 0.05443413678723308 0.1145667729989676 0.08816213097271627 1:0.21875 2:0 3:0.09375 4:0.28125 5:0.25 6:0.1875 7:0.0625 8:0.4375 9:0.46875 10:0.53125 11:0.0625 12:0.4375 13:0.5 14:0.25 15:0.46875 16:0.25 17:0.40625 18:0.28125 19:0.0625 20:0.46875 21:0.625 22:0.65625 23:0.1875 24:0.65625 25:0.65625 26:0.25 27:0.125 28:0 29:0.25 30:0.03125 31:0 32:0 33:0.03125 34:0.03125 35:0 36:0.75 37:0.6875 38:0.03125 39:0.75 40:0.75 41:0 42:0 43:0 44:0 45:0 46:0.15625 47:0 48:0.15625 49:0.21875 50:0.1875 51:0.375 52:0 53:0.21875 54:0.5 55:0.6875 56:0.34375 57:0.09375 58:0.3125 59:0.5625 60:0.46875 61:0.3125 62:0.21875 63:0.0625 64:0.21875 65:0.125 66:0.1875 67:0.3125 68:0.3125 69:0.34375 70:0.8125 71:0.09375 72:0.5 73:0.59375 74:0.625 75:0.40625 76:0.28125 77:0.25 78:0.34375 79:0.53125 80:0.625 
-0.3313077791975604 0 0 0.1433340233491959 0.1635981614579052 0.1877390044913166 0 0.1966969499892106 0.7491824116232975 0.02920107420783227 0 0.0889499285314809 0 1:0 2:0 3:0 4:0 5:0 6:0.21875 7:0 8:0.15625 9:0.28125 10:0.25 11:0.125 12:0.0625 13:0.4375 14:0.46875 15:0.53125 16:0.34375 17:0.5 18:0.28125 19:0.21875 20:0.59375 21:0.25 22:0.21875 23:0 24:0.21875 25:0 26:0.65625 27:0.5 28:0.125 29:0.65625 30:0.8125 31:0.1875 32:0.03125 33:0.03125 34:0.1875 35:0.03125 36:0.6875 37:0.46875 38:0 39:0.6875 40:0.8125 41:0 42:0 43:0 44:0 45:0 46:0.15625 47:0.0625 48:0.25 49:0.21875 50:0.09375 51:0.40625 52:0 53:0.15625 54:0.4375 55:0.625 56:0.40625 57:0.15625 58:0.09375 59:0.4375 60:0.375 61:0.375 62:0.25 63:0.15625 64:0.28125 65:0.3125 66:0.21875 67:0.25 68:0.40625 69:0.34375 70:0.875 71:0.375 72:0.34375 73:0.46875 74:0.65625 75:0.5625 76:0.53125 77:0.28125 78:0.15625 79:0.53125 80:0.59375 
0 -0.1307146090238205 0.02409139906427594 0 0 0 0 0 0 0 0.2304673731130312 0 0.1012497413584885 1:0.09375 2:0.0625 3:0 4:0.0625 5:0 6:0.09375 7:0.46875 8:0.5 9:0.46875 10:0.375 11:0.09375 12:0.46875 13:0.46875 14:0.25 15:0.46875 16:0.28125 17:0.28125 18:0.15625 19:0.0625 20:0.28125 21:0 22:0 23:0 24:0 25:0 26:0 27:0 28:0 29:0 30:0 31:0.3125 32:0.21875 33:0 34:0.28125 35:0.0625 36:0.6875 37:0.59375 38:0 39:0.65625 40:0.75 41:0 42:0 43:0 44:0 45:0 46:0.15625 47:0 48:0.15625 49:0.15625 50:0.09375 51:0.46875 52:0 53:0.09375 54:0.46875 55:0.6875 56:0.375 57:0.0625 58:0 59:0.375 60:0.25 61:0.3125 62:0.21875 63:0.0625 64:0.21875 65:0.125 66:0.3125 67:0.25 68:0.34375 69:0.25 70:0.875 71:0.15625 72:0.375 73:0.53125 74:0.53125 75:0.46875 76:0.09375 77:0.375 78:0.375 79:0.34375 80:0.375 
-0.0560534381381439 -0.02401603918957203 0 0.05831136281831554 0.08634244853820745 0.07572501823539442 0.3054545887006483 0.05462145165964742 0 0.07858959404675761 0 0.07119329191308167 0 1:0.21875 2:0.0625 3:0.09375 4:0.21875 5:0.15625 6:0.28125 7:0.0625 8:0.40625 9:0.40625 10:0.5625 11:0.21875 12:0.4375 13:0.40625 14:0.15625 15:0.53125 16:0.28125 17:0.28125 18:0.09375 19:0.125 20:0.21875 21:0.125 22:0.21875 23:0.125 24:0.125 25:0.125 26:0.125 27:0 28:0.0625 29:0.15625 30:0.0625 31:0.5 32:0.3125 33:0 34:0.5 35:0.3125 36:0.5 37:0.4375 38:0 39:0.5 40:0.5 41:0 42:0 43:0 44:0 45:0 46:0.3125 47:0 48:0 49:0.3125 50:0.1875 51:0.5 52:0 53:0 54:0.5 55:0.75 56:0.1875 57:0 58:0 59:0.1875 60:0.0625 61:0.3125 62:0.21875 63:0.0625 64:0.21875 65:0.125 66:0.375 67:0.125 68:0.125 69:0.28125 70:0.875 71:0.25 72:0.125 73:0.25 74:0.4375 75:0.34375 76:0.40625 77:0.1875 78:0.34375 79:0.46875 80:0.59375 
0 -0.3267546155264036 0.2409938744705562 0 0 0 0 0.2631589668882303 0.07439837820176715 0 0.272155158378983 0 0 1:0 2:0 3:0 4:0 5:0 6:0.28125 7:0.0625 8:0.03125 9:0.28125 10:0.1875 11:0.21875 12:0.15625 13:0.34375 14:0.4375 15:0.5625 16:0.375 17:0.5 18:0.25 19:0.21875 20:0.59375 21:0 22:0 23:0 24:0 25:0 26:0.25 27:0.34375 28:0.125 29:0.25 30:0.25 31:0.5 32:0.1875 33:0.0625 34:0.53125 35:0.1875 36:0.625 37:0.34375 38:0 39:0.625 40:0.8125 41:0 42:0 43:0 44:0 45:0 46:0.25 47:0 48:0.125 49:0.25 50:0.1875 51:0.4375 52:0.09375 53:0.125 54:0.375 55:0.8125 56:0.3125 57:0.09375 58:0.125 59:0.25 60:0.1875 61:0.375 62:0.25 63:0.15625 64:0.28125 65:0.3125 66:0.25 67:0.25 68:0.3125 69:0.375 70:0.875 71:0.40625 72:0.25 73:0.25 74:0.46875 75:0.75 76:0.375 77:0.25 78:0 79:0.375 80:0.15625 
-0.1074384305573351 0 0 0.01865722031430683 0 0 0 0.04122720754591035 0.495198695999639 0 0 0 0 1:0 2:0 3:0 4:0 5:0 6:0.15625 7:0 8:0.03125 9:0.15625 10:0.0625 11:0.21875 12:0.0625 13:0.34375 14:0.34375 15:0.5 16:0.25 17:0.46875 18:0.25 19:0.25 20:0.53125 21:0 22:0 23:0 24:0 25:0 26:0.4375 27:0.28125 28:0.1875 29:0.46875 30:0.5 31:0.4375 32:0.0625 33:0 34:0.4375 35:0.1875 36:0.6875 37:0.46875 38:0 39:0.6875 40:0.8125 41:0.03125 42:0 43:0 44:0.03125 45:0 46:0.25 47:0 48:0.21875 49:0.25 50:0.3125 51:0.4375 52:0 53:0.4375 54:0.4375 55:0.625 56:0.28125 57:0.0625 58:0.15625 59:0.28125 60:0.28125 61:0.4375 62:0.25 63:0.0625 64:0.34375 65:0.34375 66:0.3125 67:0.28125 68:0.28125 69:0.4375 70:0.8125 71:0.03125 72:0.375 73:0.40625 74:0.40625 75:0.375 76:0.1875 77:0.15625 78:0.09375 79:0.125 80:0.09375 
0 -0.002261686549624709 0 0 0 0 0 0 0 0 0 0 0 1:0.28125 2:0.0625 3:0.03125 4:0.28125 5:0.1875 6:0.21875 7:0.15625 8:0.34375 9:0.4375 10:0.5625 11:0.09375 12:0.46875 13:0.40625 14:0.0625 15:0.53125 16:0.28125 17:0.28125 18:0.09375 19:0.125 20:0.21875 21:0.125 22:0.21875 23:0.125 24:0.125 25:0.125 26:0.125 27:0 28:0.0625 29:0.15625 30:0.0625 31:0.5 32:0.375 33:0 34:0.5 35:0.3125 36:0.5 37:0.4375 38:0 39:0.5 40:0.5 41:0 42:0 43:0 44:0 45:0 46:0.21875 47:0 48:0.03125 49:0.21875 50:0.125 51:0.5 52:0.09375 53:0.09375 54:0.5 55:0.75 56:0.28125 57:0.09375 58:0 59:0.28125 60:0.09375 61:0.1875 62:0.0625 63:0.1875 64:0.28125 65:0.21875 66:0.34375 67:0.15625 68:0.125 69:0.40625 70:0.84375 71:0.3125 72:0.3125 73:0.375 74:0.5625 75:0.5 76:0.34375 77:0.3125 78:0.28125 79:0.4375 80:0.4375 
0 0 0.6164524785775818 0 0 0 0 0 0 0 0.01086410583597216 0 0.7977606678646348 1:0 2:0 3:0 4:0 5:0 6:0.21875 7:0 8:0.15625 9:0.21875 10:0.1875 11:0.15625 12:0.125 13:0.40625 14:0.40625 15:0.5 16:0.28125 17:0.5 18:0.28125 19:0.28125 20:0.53125 21:0 22:0 23:0 24:0 25:0 26:0.125 27:0.21875 28:0.1875 29:0.1875 30:0.1875 31:0.1875 32:0.03125 33:0.09375 34:0.1875 35:0.03125 36:0.6875 37:0.46875 38:0 39:0.6875 40:0.8125 41:0 42:0 43:0 44:0 45:0 46:0.15625 47:0 48:0.09375 49:0.15625 50:0.09375 51:0.4375 52:0 53:0.1875 54:0.4375 55:0.625 56:0.40625 57:0.0625 58:0.03125 59:0.40625 60:0.375 61:0.34375 62:0.1875 63:0.15625 64:0.21875 65:0.25 66:0.28125 67:0.125 68:0.28125 69:0.28125 70:0.8125 71:0.375 72:0.0625 73:0.3125 74:0.53125 75:0.5 76:0.3125 77:0.28125 78:0.1875 79:0.3125 80:0.28125 
0 0 0.2930420124681208 0 0 0 0.282873461371371 0 0.2922996912111271 0 0.1650277124113836 0 0.09445578254122744 1:0.21875 2:0.0625 3:0.09375 4:0.21875 5:0.15625 6:0.03125 7:0.0625 8:0.40625 9:0.40625 10:0.5 11:0.0625 12:0.4375 13:0.46875 14:0.375 15:0.40625 16:0.3125 17:0.375 18:0.15625 19:0.125 20:0.375 21:0.25 22:0.34375 23:0.125 24:0.25 25:0.25 26:0.25 27:0.125 28:0.0625 29:0.28125 30:0.125 31:0.3125 32:0.21875 33:0 34:0.3125 35:0.0625 36:0.6875 37:0.59375 38:0 39:0.6875 40:0.75 41:0 42:0 43:0 44:0 45:0 46:0.125 47:0 48:0.0625 49:0.125 50:0.03125 51:0.46875 52:0.125 53:0.15625 54:0.46875 55:0.59375 56:0.40625 57:0.1875 58:0.09375 59:0.40625 60:0.34375 61:0.125 62:0.09375 63:0 64:0.09375 65:0 66:0.4375 67:0.1875 68:0.125 69:0.3125 70:0.8125 71:0.3125 72:0.25 73:0.3125 74:0.46875 75:0.46875 76:0.25 77:0.1875 78:0.25 79:0.34375 80:0.4375 
